{"learner":{"attributes":{"scikit_learn":"{\"_estimator_type\": \"classifier\"}"},"feature_names":["Age","DailyRate","DistanceFromHome","Education","EnvironmentSatisfaction","HourlyRate","JobInvolvement","JobLevel","JobSatisfaction","MonthlyIncome","MonthlyRate","NumCompaniesWorked","PercentSalaryHike","PerformanceRating","RelationshipSatisfaction","StockOptionLevel","TotalWorkingYears","TrainingTimesLastYear","WorkLifeBalance","YearsAtCompany","YearsInCurrentRole","YearsSinceLastPromotion","YearsWithCurrManager","Compa_Ratio","Promotion_Stagnation","Burnout_Risk","Manager_Stability","Engagement_Index","Career_Velocity","Income_Growth_Gap","Loyalty_Index","Travel_Burden","BusinessTravel_Travel_Frequently","BusinessTravel_Travel_Rarely","Department_Research & Development","Department_Sales","EducationField_Life Sciences","EducationField_Marketing","EducationField_Medical","EducationField_Other","EducationField_Technical Degree","Gender_Male","JobRole_Human Resources","JobRole_Laboratory Technician","JobRole_Manager","JobRole_Manufacturing Director","JobRole_Research Director","JobRole_Research Scientist","JobRole_Sales Executive","JobRole_Sales Representative","MaritalStatus_Married","MaritalStatus_Single","OverTime_Yes"],"feature_types":["int","int","int","int","int","int","int","int","int","int","int","int","int","int","int","int","int","int","int","int","int","int","int","float","float","float","float","float","float","float","float","int","i","i","i","i","i","i","i","i","i","i","i","i","i","i","i","i","i","i","i","i","i"],"gradient_booster":{"model":{"cats":{"enc":[],"feature_segments":[],"sorted_idx":[]},"gbtree_model_param":{"num_parallel_tree":"1","num_trees":"130"},"iteration_indptr":[0,1,2,3,4,5,6,7,8,9,10,11,12,13,14,15,16,17,18,19,20,21,22,23,24,25,26,27,28,29,30,31,32,33,34,35,36,37,38,39,40,41,42,43,44,45,46,47,48,49,50,51,52,53,54,55,56,57,58,59,60,61,62,63,64,65,66,67,68,69,70,71,72,73,74,75,76,77,78,79,80,81,82,83,84,85,86,87,88,89,90,91,92,93,94,95,96,97,98,99,100,101,102,103,104,105,106,107,108,109,110,111,112,113,114,115,116,117,118,119,120,121,122,123,124,125,126,127,128,129,130],"tree_info":[0,0,0,0,0,0,0,0,0,0,0,0,0,0,0,0,0,0,0,0,0,0,0,0,0,0,0,0,0,0,0,0,0,0,0,0,0,0,0,0,0,0,0,0,0,0,0,0,0,0,0,0,0,0,0,0,0,0,0,0,0,0,0,0,0,0,0,0,0,0,0,0,0,0,0,0,0,0,0,0,0,0,0,0,0,0,0,0,0,0,0,0,0,0,0,0,0,0,0,0,0,0,0,0,0,0,0,0,0,0,0,0,0,0,0,0,0,0,0,0,0,0,0,0,0,0,0,0,0,0],"trees":[{"base_weights":[6.4033368E-3,7.039563E-1,-5.4205716E-1,1.5721352E-1,1.3460832E0,-1.0038409E0,6.806774E-2,4.351407E-1,-1.1661371E-1,1.5225464E0,3.1404745E-2,-4.5058727E-3,-1.1720273E0,-3.2053423E-1,1.1057771E0,7.833161E-2,-3.2624036E-2,1.4440094E-1,9.6151814E-2,-7.743061E-2,-1.568412E-1,3.1782895E-2,-7.888497E-2,1.2017269E-1,5.746915E-2],"categories":[],"categories_nodes":[],"categories_segments":[],"categories_sizes":[],"default_left":[0,0,0,0,0,0,0,0,0,0,0,0,0,0,0,0,0,0,0,0,0,0,0,0,0],"id":0,"left_children":[1,3,5,7,9,11,13,15,-1,17,-1,-1,19,21,23,-1,-1,-1,-1,-1,-1,-1,-1,-1,-1],"loss_changes":[1.2742238E2,5.1256447E1,5.260354E1,3.571773E1,1.0876762E1,1.6888672E1,3.312535E1,2.9950182E1,0E0,2.5804443E0,0E0,0E0,1.3529778E1,2.7314898E1,2.2039394E0,0E0,0E0,0E0,0E0,0E0,0E0,0E0,0E0,0E0,0E0],"parents":[2147483647,0,0,1,1,2,2,3,3,4,4,5,5,6,6,7,7,9,9,12,12,13,13,14,14],"right_children":[2,4,6,8,10,12,14,16,-1,18,-1,-1,20,22,24,-1,-1,-1,-1,-1,-1,-1,-1,-1,-1],"split_conditions":[2E0,1E0,1E0,7.5609756E-1,3.25E0,2.25E0,1.3620031E0,8.1095105E-1,-1.1661371E-1,1.3043478E-1,3.1404745E-2,-4.5058727E-3,1.1E1,5.7894737E-1,4.7058824E-1,7.833161E-2,-3.2624036E-2,1.4440094E-1,9.6151814E-2,-7.743061E-2,-1.568412E-1,3.1782895E-2,-7.888497E-2,1.2017269E-1,5.746915E-2],"split_indices":[7,52,48,30,27,27,23,23,0,24,0,0,19,30,26,0,0,0,0,0,0,0,0,0,0],"split_type":[0,0,0,0,0,0,0,0,0,0,0,0,0,0,0,0,0,0,0,0,0,0,0,0,0],"sum_hessian":[3.3106317E2,1.456E2,1.8546315E2,7.9313156E1,6.628684E1,1.05197365E2,8.026579E1,6.801579E1,1.1297368E1,5.555E1,1.0736842E1,1.603421E1,8.9163155E1,5.89E1,2.136579E1,4.188684E1,2.6128948E1,3.1339474E1,2.4210526E1,6.9413155E1,1.975E1,2.811579E1,3.078421E1,1.0081579E1,1.128421E1],"tree_param":{"num_deleted":"0","num_feature":"53","num_nodes":"25","size_leaf_vector":"1"}},{"base_weights":[-5.8196415E-3,8.159465E-1,-3.638614E-1,1.3314279E0,1.9767717E-1,1.13856435E-1,-7.608093E-1,1.2885912E-1,6.3378826E-2,-6.7307556E-1,9.254673E-1,4.3640816E-1,-9.8854476E-1,-5.018673E-1,-1.4403551E0,-1.0973024E-1,3.0832863E-3,1.14167735E-1,2.5073558E-2,-2.1043524E-2,6.538961E-2,-1.4868824E-1,2.0885852E-3,-1.5712738E-2,-8.787179E-2,-1.5408517E-1,-4.6873853E-2],"categories":[],"categories_nodes":[],"categories_segments":[],"categories_sizes":[],"default_left":[0,0,0,0,0,0,0,0,0,0,0,0,0,0,0,0,0,0,0,0,0,0,0,0,0,0,0],"id":1,"left_children":[1,3,5,7,9,11,13,-1,-1,15,17,19,21,23,25,-1,-1,-1,-1,-1,-1,-1,-1,-1,-1,-1,-1],"loss_changes":[9.41311E1,3.0680641E1,4.234095E1,5.696602E0,2.934275E1,3.6698795E1,2.0714973E1,0E0,0E0,9.977801E0,6.755348E0,1.9875622E1,1.940299E1,1.5565548E1,1.1326302E1,0E0,0E0,0E0,0E0,0E0,0E0,0E0,0E0,0E0,0E0,0E0,0E0],"parents":[2147483647,0,0,1,1,2,2,3,3,4,4,5,5,6,6,9,9,10,10,11,11,12,12,13,13,14,14],"right_children":[2,4,6,8,10,12,14,-1,-1,16,18,20,22,24,26,-1,-1,-1,-1,-1,-1,-1,-1,-1,-1,-1,-1],"split_conditions":[2E0,3.3E1,1E0,3E0,1E0,4E0,4E0,1.2885912E-1,6.3378826E-2,8E1,1E0,6E-1,1.9299E4,1.6E1,1.4E1,-1.0973024E-1,3.0832863E-3,1.14167735E-1,2.5073558E-2,-2.1043524E-2,6.538961E-2,-1.4868824E-1,2.0885852E-3,-1.5712738E-2,-8.787179E-2,-1.5408517E-1,-4.6873853E-2],"split_indices":[22,0,15,27,52,8,3,0,0,5,50,26,10,12,2,0,0,0,0,0,0,0,0,0,0,0,0],"split_type":[0,0,0,0,0,0,0,0,0,0,0,0,0,0,0,0,0,0,0,0,0,0,0,0,0,0,0],"sum_hessian":[3.1791815E2,9.609198E1,2.2182617E2,5.17729E1,4.4319077E1,1.00994606E2,1.2083157E2,3.53624E1,1.6410501E1,2.0211971E1,2.4107105E1,7.860089E1,2.2393717E1,8.875129E1,3.2080284E1,1.0034203E1,1.0177769E1,1.3140425E1,1.09666815E1,2.6863316E1,5.1737576E1,1.1974853E1,1.0418863E1,5.80821E1,3.0669186E1,2.0716473E1,1.13638115E1],"tree_param":{"num_deleted":"0","num_feature":"53","num_nodes":"27","size_leaf_vector":"1"}},{"base_weights":[9.5736004E-2,9.2236704E-1,-2.1290636E-1,1.2225597E0,-4.466112E-2,-5.470341E-1,4.302266E-1,1.4023819E0,4.531895E-2,5.8786083E-2,-7.087615E-2,2.4870104E-1,-8.188892E-1,1.0139846E0,-2.1303721E-1,1.2587066E-1,6.713805E-2,7.256983E-2,-1.627287E-2,-2.7179211E-2,-1.01359196E-1,3.4012865E-2,1.2925851E-1,4.791012E-2,-6.2508605E-2],"categories":[],"categories_nodes":[],"categories_segments":[],"categories_sizes":[],"default_left":[0,0,0,0,0,0,0,0,0,0,0,0,0,0,0,0,0,0,0,0,0,0,0,0,0],"id":2,"left_children":[1,3,5,7,9,11,13,15,-1,-1,-1,17,19,21,23,-1,-1,-1,-1,-1,-1,-1,-1,-1,-1],"loss_changes":[8.358585E1,2.5904205E1,5.1550858E1,7.4505157E0,1.4253658E1,3.4295208E1,3.1085312E1,2.6577148E0,0E0,0E0,0E0,1.170891E1,2.3268143E1,1.37854E1,1.775472E1,0E0,0E0,0E0,0E0,0E0,0E0,0E0,0E0,0E0,0E0],"parents":[2147483647,0,0,1,1,2,2,3,3,4,4,5,5,6,6,7,7,11,11,12,12,13,13,14,14],"right_children":[2,4,6,8,10,12,14,16,-1,-1,-1,18,20,22,24,-1,-1,-1,-1,-1,-1,-1,-1,-1,-1],"split_conditions":[8.3333336E-2,4.306E3,2.5E-1,9.71E2,3E0,4.38E2,3.6E1,3.5E1,4.531895E-2,5.8786083E-2,-7.087615E-2,3E0,1.4E1,4.2857143E-1,3E0,1.2587066E-1,6.713805E-2,7.256983E-2,-1.627287E-2,-2.7179211E-2,-1.01359196E-1,3.4012865E-2,1.2925851E-1,4.791012E-2,-6.2508605E-2],"split_indices":[26,9,25,1,14,1,0,0,0,0,0,18,12,24,18,0,0,0,0,0,0,0,0,0,0],"split_type":[0,0,0,0,0,0,0,0,0,0,0,0,0,0,0,0,0,0,0,0,0,0,0,0,0],"sum_hessian":[3.2584665E2,8.804607E1,2.3780058E2,6.698714E1,2.1058928E1,1.5659435E2,8.1206245E1,5.1998165E1,1.4988973E1,1.0978493E1,1.0080436E1,3.989745E1,1.16696884E2,4.227009E1,3.8936157E1,4.1536674E1,1.0461492E1,1.6106785E1,2.3790667E1,5.4137405E1,6.2559483E1,2.1125444E1,2.1144644E1,1.5825827E1,2.311033E1],"tree_param":{"num_deleted":"0","num_feature":"53","num_nodes":"25","size_leaf_vector":"1"}},{"base_weights":[-6.552018E-2,8.174035E-1,-3.1048372E-1,1.0926341E0,8.4682135E-3,1.8732913E-1,-7.6312095E-1,6.525618E-1,1.17083535E-1,-1.6126817E-1,8.322821E-1,-1.0166309E0,1.4169596E-2,-8.350499E-3,1.0360211E-1,-3.335311E-2,7.332683E-2,1.0550495E-1,2.8875588E-2,1.9794207E-2,-1.0184405E-1,5.06593E-2,-7.788393E-2],"categories":[],"categories_nodes":[],"categories_segments":[],"categories_sizes":[],"default_left":[0,0,0,0,0,0,0,0,0,0,0,0,0,0,0,0,0,0,0,0,0,0,0],"id":3,"left_children":[1,3,5,7,-1,9,11,13,-1,15,17,19,21,-1,-1,-1,-1,-1,-1,-1,-1,-1,-1],"loss_changes":[6.758987E1,1.3241261E1,5.522202E1,6.1420135E0,0E0,2.6487122E1,2.5281403E1,1.0503012E1,0E0,2.0055288E1,8.468306E0,2.697271E1,1.9324718E1,0E0,0E0,0E0,0E0,0E0,0E0,0E0,0E0,0E0,0E0],"parents":[2147483647,0,0,1,1,2,2,3,3,5,5,6,6,7,7,9,9,10,10,11,11,12,12],"right_children":[2,4,6,8,-1,10,12,14,-1,16,18,20,22,-1,-1,-1,-1,-1,-1,-1,-1,-1,-1],"split_conditions":[2.45E3,6.4285713E-1,1E0,1E0,8.4682135E-3,1.1939963E0,2E0,7.102096E-1,1.17083535E-1,2.2E1,4E0,2E0,4E0,-8.350499E-3,1.0360211E-1,-3.335311E-2,7.332683E-2,1.0550495E-1,2.8875588E-2,1.9794207E-2,-1.0184405E-1,5.06593E-2,-7.788393E-2],"split_indices":[9,30,15,51,0,23,31,23,0,2,20,3,20,0,0,0,0,0,0,0,0,0,0],"split_type":[0,0,0,0,0,0,0,0,0,0,0,0,0,0,0,0,0,0,0,0,0,0,0],"sum_hessian":[3.1033157E2,6.689275E1,2.4343883E2,4.7911217E1,1.8981537E1,1.1621314E2,1.2722569E2,2.1752125E1,2.6159092E1,7.592539E1,4.0287746E1,9.570425E1,3.152144E1,1.0053726E1,1.16984E1,6.2143425E1,1.3781968E1,2.0011946E1,2.0275799E1,1.4213163E1,8.149109E1,1.9605898E1,1.1915543E1],"tree_param":{"num_deleted":"0","num_feature":"53","num_nodes":"23","size_leaf_vector":"1"}},{"base_weights":[-7.462568E-2,5.4752904E-1,-5.4477316E-1,-2.3739569E-2,1.1975073E0,-9.140925E-1,-9.778569E-2,8.4547776E-1,-6.528711E-1,1.4222302E0,5.6311127E-2,-1.2926835E0,-2.1213603E-1,7.559217E-1,-4.8285314E-1,1.0020306E-1,1.2820241E-2,2.5265066E-2,-8.392042E-2,1.3433051E-1,7.76643E-2,-1.4269629E-1,-6.026941E-2,5.43647E-2,-8.009032E-2,1.6845847E-3,1.05630115E-1,-1.5705792E-2,-1.1031231E-1],"categories":[],"categories_nodes":[],"categories_segments":[],"categories_sizes":[],"default_left":[0,0,0,0,0,0,0,0,0,0,0,0,0,0,0,0,0,0,0,0,0,0,0,0,0,0,0,0,0],"id":4,"left_children":[1,3,5,7,9,11,13,15,17,19,-1,21,23,25,27,-1,-1,-1,-1,-1,-1,-1,-1,-1,-1,-1,-1,-1,-1],"loss_changes":[9.006985E1,4.926336E1,2.8850895E1,3.9680393E1,6.1952972E0,2.5204964E1,2.6806648E1,7.605591E0,1.5075066E1,2.680954E0,0E0,1.4037483E1,2.3693441E1,9.799615E0,1.376407E1,0E0,0E0,0E0,0E0,0E0,0E0,0E0,0E0,0E0,0E0,0E0,0E0,0E0,0E0],"parents":[2147483647,0,0,1,1,2,2,3,3,4,4,5,5,6,6,7,7,8,8,9,9,11,11,12,12,13,13,14,14],"right_children":[2,4,6,8,10,12,14,16,18,20,-1,22,24,26,28,-1,-1,-1,-1,-1,-1,-1,-1,-1,-1,-1,-1,-1,-1],"split_conditions":[3.748E3,1E0,1.1497698E0,2E0,3.4E1,1E0,3.5E-1,1E0,9.375E-2,1E0,5.6311127E-2,1E0,3E0,1.6129032E-1,8.8E-1,1.0020306E-1,1.2820241E-2,2.5265066E-2,-8.392042E-2,1.3433051E-1,7.76643E-2,-1.4269629E-1,-6.026941E-2,5.43647E-2,-8.009032E-2,1.6845847E-3,1.05630115E-1,-1.5705792E-2,-1.1031231E-1],"split_indices":[9,52,23,19,0,52,26,15,28,47,0,48,4,28,30,0,0,0,0,0,0,0,0,0,0,0,0,0,0],"split_type":[0,0,0,0,0,0,0,0,0,0,0,0,0,0,0,0,0,0,0,0,0,0,0,0,0,0,0,0,0],"sum_hessian":[3.0590665E2,1.3159715E2,1.743095E2,7.055209E1,6.104506E1,9.487494E1,7.943456E1,2.9479248E1,4.1072845E1,4.124674E1,1.979832E1,6.1086952E1,3.3787987E1,2.4392496E1,5.5042065E1,1.8679068E1,1.0800181E1,1.13785305E1,2.9694313E1,2.7089361E1,1.4157377E1,3.3095783E1,2.7991169E1,1.5795517E1,1.7992472E1,1.0605727E1,1.3786769E1,4.194553E1,1.3096535E1],"tree_param":{"num_deleted":"0","num_feature":"53","num_nodes":"29","size_leaf_vector":"1"}},{"base_weights":[-1.9819548E-2,-4.1104442E-1,7.035793E-1,3.6426276E-1,-7.7513283E-1,9.742144E-1,-3.2772034E-1,7.9168016E-1,-4.4940525E-1,3.5796377E-1,-1.0592979E0,6.354446E-1,1.3441477E0,1.7874127E-2,-7.229541E-2,1.0043372E-1,-9.554209E-3,-7.6178424E-2,1.4612868E-2,7.806832E-2,-2.946389E-2,-1.09598495E-1,-1.1104962E-2,9.100463E-2,-1.4036412E-2,7.311384E-2,1.2475645E-1],"categories":[],"categories_nodes":[],"categories_segments":[],"categories_sizes":[],"default_left":[0,0,0,0,0,0,0,0,0,0,0,0,0,0,0,0,0,0,0,0,0,0,0,0,0,0,0],"id":5,"left_children":[1,3,5,7,9,11,13,15,17,19,21,23,25,-1,-1,-1,-1,-1,-1,-1,-1,-1,-1,-1,-1,-1,-1],"loss_changes":[9.009819E1,5.8596622E1,3.150948E1,2.3549953E1,4.5743843E1,1.0271034E1,7.369973E0,1.7239885E1,7.194661E0,1.2571757E1,2.8097328E1,1.8420977E1,1.8825073E0,0E0,0E0,0E0,0E0,0E0,0E0,0E0,0E0,0E0,0E0,0E0,0E0,0E0,0E0],"parents":[2147483647,0,0,1,1,2,2,3,3,4,4,5,5,6,6,7,7,8,8,9,9,10,10,11,11,12,12],"right_children":[2,4,6,8,10,12,14,16,18,20,22,24,26,-1,-1,-1,-1,-1,-1,-1,-1,-1,-1,-1,-1,-1,-1],"split_conditions":[6.666667E-1,2.5E0,1.3E1,6.8421054E-1,2.372E3,1E0,1.4E1,5.326E3,6.315789E-1,8.3333336E-2,8.947368E-1,3.748E3,2.3333333E0,1.7874127E-2,-7.229541E-2,1.0043372E-1,-9.554209E-3,-7.6178424E-2,1.4612868E-2,7.806832E-2,-2.946389E-2,-1.09598495E-1,-1.1104962E-2,9.100463E-2,-1.4036412E-2,7.311384E-2,1.2475645E-1],"split_indices":[25,27,16,30,9,51,12,9,26,26,30,9,25,0,0,0,0,0,0,0,0,0,0,0,0,0,0],"split_type":[0,0,0,0,0,0,0,0,0,0,0,0,0,0,0,0,0,0,0,0,0,0,0,0,0,0,0],"sum_hessian":[3.1633325E2,2.0558281E2,1.1075046E2,6.5692856E1,1.3988995E2,8.7772446E1,2.2978012E1,4.308661E1,2.2606245E1,2.7996267E1,1.11893684E2,4.723463E1,4.053781E1,1.1846448E1,1.1131563E1,2.9061733E1,1.4024875E1,1.2587624E1,1.0018621E1,1.5171863E1,1.2824405E1,8.619583E1,2.5697855E1,2.9620466E1,1.7614164E1,1.2684789E1,2.7853024E1],"tree_param":{"num_deleted":"0","num_feature":"53","num_nodes":"27","size_leaf_vector":"1"}},{"base_weights":[6.515796E-2,7.409944E-1,-2.3855858E-1,1.1658139E0,2.155416E-1,-5.8884186E-1,3.5657257E-1,1.0988926E-1,6.5633036E-2,-1.0456283E-1,1.02154486E-1,-3.8456354E-2,-1.0855333E0,-1.3754752E-2,1.1031208E0,8.740778E-2,-5.4615293E-2,-4.2500343E-2,8.244812E-2,-1.2147698E-1,-3.3748023E-2,2.4862744E-2,-7.8657046E-2,1.255965E-1,3.641529E-2],"categories":[],"categories_nodes":[],"categories_segments":[],"categories_sizes":[],"default_left":[0,0,0,0,0,0,0,0,0,0,0,0,0,0,0,0,0,0,0,0,0,0,0,0,0],"id":6,"left_children":[1,3,5,7,9,11,13,-1,-1,15,-1,17,19,21,23,-1,-1,-1,-1,-1,-1,-1,-1,-1,-1],"loss_changes":[6.6811226E1,2.227124E1,4.7058804E1,2.3827057E0,1.5321847E1,3.873463E1,2.3207485E1,0E0,0E0,2.427337E1,0E0,3.4408596E1,1.8983566E1,1.7228191E1,7.076729E0,0E0,0E0,0E0,0E0,0E0,0E0,0E0,0E0,0E0,0E0],"parents":[2147483647,0,0,1,1,2,2,3,3,4,4,5,5,6,6,9,9,11,11,12,12,13,13,14,14],"right_children":[2,4,6,8,10,12,14,-1,-1,16,-1,18,20,22,24,-1,-1,-1,-1,-1,-1,-1,-1,-1,-1],"split_conditions":[2E0,3.3E1,1E0,1E0,5.25E0,2E0,2.1509E4,1.0988926E-1,6.5633036E-2,2E0,1.02154486E-1,1E0,4E0,4E0,4E0,8.740778E-2,-5.4615293E-2,-4.2500343E-2,8.244812E-2,-1.2147698E-1,-3.3748023E-2,2.4862744E-2,-7.8657046E-2,1.255965E-1,3.641529E-2],"split_indices":[22,0,35,15,25,7,10,0,0,4,0,25,3,14,22,0,0,0,0,0,0,0,0,0,0],"split_type":[0,0,0,0,0,0,0,0,0,0,0,0,0,0,0,0,0,0,0,0,0,0,0,0,0],"sum_hessian":[3.236301E2,9.989713E1,2.2373297E2,5.456422E1,4.5332916E1,1.4084485E2,8.2888115E1,3.570947E1,1.8854752E1,3.522345E1,1.0109466E1,6.732226E1,7.352259E1,5.606065E1,2.6827467E1,1.1117061E1,2.410639E1,4.6475307E1,2.0846949E1,4.5922344E1,2.7600246E1,4.2491337E1,1.3569314E1,1.5588798E1,1.123867E1],"tree_param":{"num_deleted":"0","num_feature":"53","num_nodes":"25","size_leaf_vector":"1"}},{"base_weights":[1.7372772E-2,9.744427E-1,-1.621475E-1,4.076343E-2,1.1282043E0,5.8540756E-1,-4.1148952E-1,1.15584224E-1,8.948806E-1,8.992659E-2,1.0060081E0,-6.358905E-1,2.737857E-1,4.266478E-2,1.0185124E-1,-4.9081754E-2,4.2722367E-2,5.1805906E-2,1.16424896E-1,-7.120327E-2,-1.0935812E-2,5.073727E-2,-7.367612E-2],"categories":[],"categories_nodes":[],"categories_segments":[],"categories_sizes":[],"default_left":[0,0,0,0,0,0,0,0,0,0,0,0,0,0,0,0,0,0,0,0,0,0,0],"id":7,"left_children":[1,3,5,-1,7,9,11,-1,13,15,17,19,21,-1,-1,-1,-1,-1,-1,-1,-1,-1,-1],"loss_changes":[5.3825138E1,3.0912247E0,4.9427055E1,0E0,1.0957222E0,1.3750103E1,3.0693344E1,0E0,2.2680054E0,9.592401E0,4.6123466E0,1.7095367E1,2.0387869E1,0E0,0E0,0E0,0E0,0E0,0E0,0E0,0E0,0E0,0E0],"parents":[2147483647,0,0,1,1,2,2,4,4,5,5,6,6,8,8,9,9,10,10,11,11,12,12],"right_children":[2,4,6,-1,8,10,12,-1,14,16,18,20,22,-1,-1,-1,-1,-1,-1,-1,-1,-1,-1],"split_conditions":[3E0,4E0,2E0,4.076343E-2,1E0,9E0,2E0,1.15584224E-1,1.1E1,1.0740863E0,4E0,1E0,3.25E0,4.266478E-2,1.0185124E-1,-4.9081754E-2,4.2722367E-2,5.1805906E-2,1.16424896E-1,-7.120327E-2,-1.0935812E-2,5.073727E-2,-7.367612E-2],"split_indices":[16,2,4,0,41,2,31,0,2,23,11,48,27,0,0,0,0,0,0,0,0,0,0],"split_type":[0,0,0,0,0,0,0,0,0,0,0,0,0,0,0,0,0,0,0,0,0,0,0],"sum_hessian":[3.11357E2,4.8478306E1,2.628787E2,1.2791253E1,3.5687054E1,6.541361E1,1.9746507E2,1.4089065E1,2.159799E1,3.0590652E1,3.4822956E1,1.4880823E2,4.8656837E1,1.1457696E1,1.0140294E1,1.1616965E1,1.8973688E1,1.9394575E1,1.5428382E1,1.0186673E2,4.6941498E1,3.8001717E1,1.065512E1],"tree_param":{"num_deleted":"0","num_feature":"53","num_nodes":"23","size_leaf_vector":"1"}},{"base_weights":[8.553456E-2,7.1092105E-1,-2.3166837E-1,9.60759E-1,-4.31999E-2,7.376165E-2,-3.494872E-1,1.2312303E0,5.088966E-1,-6.9946486E-1,-1.0335288E-1,1.1981876E-1,9.017417E-2,7.9252124E-2,-3.8575415E-2,-1.4042674E-2,-9.294095E-2,1.5564881E-2,-3.9104972E-2],"categories":[],"categories_nodes":[],"categories_segments":[],"categories_sizes":[],"default_left":[0,0,0,0,0,0,0,0,0,0,0,0,0,0,0,0,0,0,0],"id":8,"left_children":[1,3,5,7,-1,-1,9,11,13,15,17,-1,-1,-1,-1,-1,-1,-1,-1],"loss_changes":[6.2436916E1,3.3180946E1,2.8066246E1,1.01803055E1,0E0,0E0,1.6291336E1,7.418823E-2,1.5860082E1,1.7552002E1,1.2318846E1,0E0,0E0,0E0,0E0,0E0,0E0,0E0,0E0],"parents":[2147483647,0,0,1,1,2,2,3,3,6,6,7,7,8,8,9,9,10,10],"right_children":[2,4,6,8,-1,-1,10,12,14,16,18,-1,-1,-1,-1,-1,-1,-1,-1],"split_conditions":[3E0,4E1,2E0,1E0,-4.31999E-2,7.376165E-2,7E0,2.25E0,3E0,3E0,3.6E1,1.1981876E-1,9.017417E-2,7.9252124E-2,-3.8575415E-2,-1.4042674E-2,-9.294095E-2,1.5564881E-2,-3.9104972E-2],"split_indices":[19,0,6,15,0,0,2,27,27,8,0,0,0,0,0,0,0,0,0],"split_type":[0,0,0,0,0,0,0,0,0,0,0,0,0,0,0,0,0,0,0],"sum_hessian":[3.1291254E2,1.0488453E2,2.08028E2,8.742449E1,1.7460037E1,1.9065847E1,1.8896216E2,5.3610226E1,3.3814266E1,7.726189E1,1.11700264E2,1.6716507E1,3.689372E1,2.3113758E1,1.0700507E1,3.5204315E1,4.2057568E1,6.2774834E1,4.8925434E1],"tree_param":{"num_deleted":"0","num_feature":"53","num_nodes":"19","size_leaf_vector":"1"}},{"base_weights":[-9.224279E-3,-2.8399277E-1,5.537155E-1,3.1682196E-1,-5.951523E-1,1.9144556E-1,1.1053021E0,6.186684E-1,-5.9739172E-2,-9.417784E-1,-1.535401E-1,7.9273653E-1,-2.3703419E-1,1.07205264E-1,4.7184348E-2,8.242777E-2,2.1758988E-3,-9.1941185E-2,-2.1005678E-3,-4.0124286E-2,3.851776E-2,1.0644282E-1,7.1090357E-3,5.2452568E-2,-7.7317275E-2],"categories":[],"categories_nodes":[],"categories_segments":[],"categories_sizes":[],"default_left":[0,0,0,0,0,0,0,0,0,0,0,0,0,0,0,0,0,0,0,0,0,0,0,0,0],"id":9,"left_children":[1,3,5,7,9,11,13,15,-1,17,19,21,23,-1,-1,-1,-1,-1,-1,-1,-1,-1,-1,-1,-1],"loss_changes":[4.6560837E1,3.8001205E1,1.9518822E1,2.2356884E1,2.0305931E1,1.5854209E1,3.316433E0,1.2308743E1,0E0,1.1882874E1,1.2641543E1,8.892139E0,2.2825869E1,0E0,0E0,0E0,0E0,0E0,0E0,0E0,0E0,0E0,0E0,0E0,0E0],"parents":[2147483647,0,0,1,1,2,2,3,3,4,4,5,5,6,6,7,7,9,9,10,10,11,11,12,12],"right_children":[2,4,6,8,10,12,14,16,-1,18,20,22,24,-1,-1,-1,-1,-1,-1,-1,-1,-1,-1,-1,-1],"split_conditions":[7.5E-1,2.5E0,1E0,1.3E1,8E0,2E0,3.6E1,7.46E2,-5.9739172E-2,9.2E1,2.6666668E-1,3E1,2.75E0,1.07205264E-1,4.7184348E-2,8.242777E-2,2.1758988E-3,-9.1941185E-2,-2.1005678E-3,-4.0124286E-2,3.851776E-2,1.0644282E-1,7.1090357E-3,5.2452568E-2,-7.7317275E-2],"split_indices":[25,27,51,16,2,7,0,1,0,5,28,0,27,0,0,0,0,0,0,0,0,0,0,0,0],"split_type":[0,0,0,0,0,0,0,0,0,0,0,0,0,0,0,0,0,0,0,0,0,0,0,0,0],"sum_hessian":[2.9900098E2,2.012616E2,9.773939E1,6.86629E1,1.325987E2,5.980672E1,3.7932667E1,5.3553955E1,1.5108952E1,7.365416E1,5.8944523E1,2.4531395E1,3.5275326E1,2.6678581E1,1.12540865E1,3.21443E1,2.1409655E1,6.1709072E1,1.194509E1,3.8492443E1,2.0452082E1,1.3888785E1,1.064261E1,1.5749546E1,1.952578E1],"tree_param":{"num_deleted":"0","num_feature":"53","num_nodes":"25","size_leaf_vector":"1"}},{"base_weights":[1.20893285E-1,-1.7667432E-1,5.4460853E-1,4.523466E-1,-3.9268702E-1,2.6473388E-1,1.137082E0,8.4972404E-2,1.7159224E-2,-7.3610955E-1,5.062979E-1,7.851875E-1,-2.6194465E-1,6.618672E-2,1.2851136E0,3.693164E-2,-5.2859038E-2,-8.227795E-2,3.7759198E-3,8.546927E-2,-3.103227E-2,9.9996656E-2,3.640274E-2,1.628957E-2,-1.2726234E-1,1.2233069E-1,7.914674E-2],"categories":[],"categories_nodes":[],"categories_segments":[],"categories_sizes":[],"default_left":[0,0,0,0,0,0,0,0,0,0,0,0,0,0,0,0,0,0,0,0,0,0,0,0,0,0,0],"id":10,"left_children":[1,3,5,7,9,11,13,-1,15,17,19,21,23,-1,25,-1,-1,-1,-1,-1,-1,-1,-1,-1,-1,-1,-1],"loss_changes":[4.0610916E1,2.5928947E1,2.1721504E1,1.23061695E1,4.4091892E1,2.5288261E1,1.0578651E0,0E0,8.505513E0,2.1162659E1,1.9022594E1,6.2720203E0,2.7561996E1,0E0,3.6428833E-1,0E0,0E0,0E0,0E0,0E0,0E0,0E0,0E0,0E0,0E0,0E0,0E0],"parents":[2147483647,0,0,1,1,2,2,3,3,4,4,5,5,6,6,8,8,9,9,10,10,11,11,12,12,14,14],"right_children":[2,4,6,8,10,12,14,-1,16,18,20,22,24,-1,26,-1,-1,-1,-1,-1,-1,-1,-1,-1,-1,-1,-1],"split_conditions":[1E0,1E0,7.5E-1,2.436E3,5E0,3E0,5.9E1,8.4972404E-2,7.1E1,9.0625E-1,1.4E1,2.25E0,5.405E3,6.618672E-2,3E0,3.693164E-2,-5.2859038E-2,-8.227795E-2,3.7759198E-3,8.546927E-2,-3.103227E-2,9.9996656E-2,3.640274E-2,1.628957E-2,-1.2726234E-1,1.2233069E-1,7.914674E-2],"split_indices":[51,22,25,9,11,8,5,0,5,30,12,27,9,0,4,0,0,0,0,0,0,0,0,0,0,0,0],"split_type":[0,0,0,0,0,0,0,0,0,0,0,0,0,0,0,0,0,0,0,0,0,0,0,0,0,0,0],"sum_hessian":[3.203312E2,1.8852002E2,1.3181119E2,4.7910976E1,1.4060904E2,9.050497E1,4.1306217E1,1.997115E1,2.7939825E1,1.01873405E2,3.873563E1,4.5274628E1,4.5230343E1,1.466605E1,2.6640167E1,1.7080992E1,1.0858832E1,7.606088E1,2.5812529E1,2.4078402E1,1.465723E1,1.9012915E1,2.6261711E1,3.3920486E1,1.1309855E1,1.4279386E1,1.2360783E1],"tree_param":{"num_deleted":"0","num_feature":"53","num_nodes":"27","size_leaf_vector":"1"}},{"base_weights":[-3.1251363E-2,5.1640314E-1,-2.7072528E-1,7.989413E-1,-2.4317037E-1,-5.4702216E-1,1.7752612E-1,3.8065588E-1,1.06528E0,4.0924035E-2,-9.427164E-2,-1.0774523E0,-3.1298354E-1,4.8998255E-1,-5.887281E-1,6.1632965E-2,-1.1397975E-2,6.711133E-2,1.2894939E-1,-3.1691357E-2,-1.11961864E-1,-6.774922E-2,7.865691E-3,8.110119E-2,-2.734504E-3,-1.4137205E-2,-8.57905E-2],"categories":[],"categories_nodes":[],"categories_segments":[],"categories_sizes":[],"default_left":[0,0,0,0,0,0,0,0,0,0,0,0,0,0,0,0,0,0,0,0,0,0,0,0,0,0,0],"id":11,"left_children":[1,3,5,7,9,11,13,15,17,-1,-1,19,21,23,25,-1,-1,-1,-1,-1,-1,-1,-1,-1,-1,-1,-1],"loss_changes":[3.9745453E1,1.9985584E1,2.6200977E1,7.108917E0,1.7747458E1,1.5880596E1,1.9712467E1,5.4036193E0,3.8199654E0,0E0,0E0,7.196167E0,1.922821E1,1.5078804E1,4.343075E0,0E0,0E0,0E0,0E0,0E0,0E0,0E0,0E0,0E0,0E0,0E0,0E0],"parents":[2147483647,0,0,1,1,2,2,3,3,4,4,5,5,6,6,7,7,8,8,11,11,12,12,13,13,14,14],"right_children":[2,4,6,8,10,12,14,16,18,-1,-1,20,22,24,26,-1,-1,-1,-1,-1,-1,-1,-1,-1,-1,-1,-1],"split_conditions":[2.5E0,5E0,1E0,9E0,1.3513513E-1,1.5384616E-1,1.1E1,7.26E2,1.2460502E0,4.0924035E-2,-9.427164E-2,-1E0,1E0,3E0,7E0,6.1632965E-2,-1.1397975E-2,6.711133E-2,1.2894939E-1,-3.1691357E-2,-1.11961864E-1,-6.774922E-2,7.865691E-3,8.110119E-2,-2.734504E-3,-1.4137205E-2,-8.57905E-2],"split_indices":[27,20,52,2,28,28,16,1,23,0,0,29,29,27,20,0,0,0,0,0,0,0,0,0,0,0,0],"split_type":[0,0,0,0,0,0,0,0,0,0,0,0,0,0,0,0,0,0,0,0,0,0,0,0,0,0,0],"sum_hessian":[3.0098978E2,9.1220535E1,2.0976924E2,6.645097E1,2.4769564E1,1.296402E2,8.0129036E1,2.6796398E1,3.965457E1,1.3847476E1,1.0922089E1,3.858549E1,9.105471E1,5.717519E1,2.295385E1,1.54312725E1,1.1365125E1,2.815824E1,1.1496334E1,1.1830588E1,2.6754902E1,4.0073444E1,5.098127E1,2.8943855E1,2.8231335E1,1.266157E1,1.029228E1],"tree_param":{"num_deleted":"0","num_feature":"53","num_nodes":"27","size_leaf_vector":"1"}},{"base_weights":[9.884919E-2,6.7150784E-1,-1.143431E-1,9.1523576E-1,1.218311E-1,-3.1843355E-1,4.4425032E-1,1.0288256E-1,5.21017E-1,7.367914E-2,-3.1958457E-2,-5.30833E-1,3.4329835E-1,6.800176E-1,-5.136255E-2,-1.4769081E-2,7.8835405E-2,-2.6531555E-2,-1.0816073E-1,8.788019E-2,-1.3333806E-2,1.0366794E-1,3.5173933E-3],"categories":[],"categories_nodes":[],"categories_segments":[],"categories_sizes":[],"default_left":[0,0,0,0,0,0,0,0,0,0,0,0,0,0,0,0,0,0,0,0,0,0,0],"id":12,"left_children":[1,3,5,7,9,11,13,-1,15,-1,-1,17,19,21,-1,-1,-1,-1,-1,-1,-1,-1,-1],"loss_changes":[3.7817715E1,1.1143414E1,2.592033E1,6.9805603E0,1.09618435E1,2.3541367E1,1.5760255E1,0E0,8.813917E0,0E0,0E0,2.0184093E1,1.5149378E1,1.8513784E1,0E0,0E0,0E0,0E0,0E0,0E0,0E0,0E0,0E0],"parents":[2147483647,0,0,1,1,2,2,3,3,4,4,5,5,6,6,8,8,11,11,12,12,13,13],"right_children":[2,4,6,8,10,12,14,-1,16,-1,-1,18,20,22,-1,-1,-1,-1,-1,-1,-1,-1,-1],"split_conditions":[1E-1,3.688E3,5E0,5.9E1,3E0,2E0,4E0,1.0288256E-1,1E0,7.367914E-2,-3.1958457E-2,1.4E1,3.2E1,3.5E1,-5.136255E-2,-1.4769081E-2,7.8835405E-2,-2.6531555E-2,-1.0816073E-1,8.788019E-2,-1.3333806E-2,1.0366794E-1,3.5173933E-3],"split_indices":[26,9,11,5,3,31,4,0,51,0,0,16,0,0,0,0,0,0,0,0,0,0,0],"split_type":[0,0,0,0,0,0,0,0,0,0,0,0,0,0,0,0,0,0,0,0,0,0,0],"sum_hessian":[3.08133E2,8.300972E1,2.2512328E2,5.704901E1,2.5960707E1,1.6519627E2,5.9926994E1,2.973148E1,2.7317532E1,1.002077E1,1.5939936E1,1.2520607E2,3.9990215E1,4.9384544E1,1.054245E1,1.0705269E1,1.6612263E1,9.993146E1,2.5274607E1,1.5986671E1,2.4003542E1,2.5382093E1,2.400245E1],"tree_param":{"num_deleted":"0","num_feature":"53","num_nodes":"23","size_leaf_vector":"1"}},{"base_weights":[7.631049E-3,-2.9867277E-1,5.7502824E-1,2.898945E-1,-5.09054E-1,9.797576E-1,1.9151525E-1,8.1060904E-1,-3.9875495E-1,-9.023793E-1,-7.369586E-2,1.1437701E0,4.5674663E-2,7.385296E-1,-5.451089E-1,3.653996E-2,8.206758E-2,-7.111859E-2,1.3056462E-2,-9.092907E-2,-3.0616583E-2,-5.5434782E-2,2.5091808E-2,1.0605195E-1,6.587885E-2,-2.0958219E-2,1.17966674E-1,2.274417E-2,-9.866371E-2],"categories":[],"categories_nodes":[],"categories_segments":[],"categories_sizes":[],"default_left":[0,0,0,0,0,0,0,0,0,0,0,0,0,0,0,0,0,0,0,0,0,0,0,0,0,0,0,0,0],"id":13,"left_children":[1,3,5,7,9,11,13,15,17,19,21,23,-1,25,27,-1,-1,-1,-1,-1,-1,-1,-1,-1,-1,-1,-1,-1,-1],"loss_changes":[5.1142143E1,2.3812443E1,1.5824688E1,1.859797E1,2.4104504E1,2.8508415E0,2.2246609E1,1.5565453E0,5.988862E0,7.501667E0,1.5634285E1,7.036934E-1,0E0,2.2070251E1,1.3014814E1,0E0,0E0,0E0,0E0,0E0,0E0,0E0,0E0,0E0,0E0,0E0,0E0,0E0,0E0],"parents":[2147483647,0,0,1,1,2,2,3,3,4,4,5,5,6,6,7,7,8,8,9,9,10,10,11,11,13,13,14,14],"right_children":[2,4,6,8,10,12,14,16,18,20,22,24,-1,26,28,-1,-1,-1,-1,-1,-1,-1,-1,-1,-1,-1,-1,-1,-1],"split_conditions":[5E-1,2E0,3.936E3,3.2E1,1.0490623E0,1.3043478E-1,1E0,7E0,9.4219196E-1,2.3529412E-1,1.5789473E-1,3.4E1,4.5674663E-2,5.3333335E0,2.5E0,3.653996E-2,8.206758E-2,-7.111859E-2,1.3056462E-2,-9.092907E-2,-3.0616583E-2,-5.5434782E-2,2.5091808E-2,1.0605195E-1,6.587885E-2,-2.0958219E-2,1.17966674E-1,2.274417E-2,-9.866371E-2],"split_indices":[25,20,9,0,23,24,34,2,23,28,24,0,0,25,25,0,0,0,0,0,0,0,0,0,0,0,0,0,0],"split_type":[0,0,0,0,0,0,0,0,0,0,0,0,0,0,0,0,0,0,0,0,0,0,0,0,0,0,0,0,0],"sum_hessian":[2.922773E2,1.9011772E2,1.02159584E2,4.9962788E1,1.4015494E2,4.8948498E1,5.3211082E1,2.8349518E1,2.161327E1,7.3068405E1,6.708653E1,3.4108944E1,1.4839557E1,3.0534035E1,2.2677048E1,1.0653192E1,1.7696327E1,1.148874E1,1.0124529E1,5.219815E1,2.0870253E1,2.566101E1,4.142552E1,2.2143208E1,1.19657345E1,1.2814202E1,1.7719833E1,1.0295318E1,1.238173E1],"tree_param":{"num_deleted":"0","num_feature":"53","num_nodes":"29","size_leaf_vector":"1"}},{"base_weights":[8.694524E-2,-5.5046737E-2,8.902528E-1,4.7178268E-1,-2.3888126E-1,1.1161932E0,1.4853668E-2,9.40455E-1,1.2927496E-1,-8.711252E-2,-1.0337914E-1,4.9740978E-2,1.1042237E-1,5.284813E-2,1.0491024E-1,-2.750115E-2,5.391292E-2,-2.2741286E-2,3.8032427E-2],"categories":[],"categories_nodes":[],"categories_segments":[],"categories_sizes":[],"default_left":[0,0,0,0,0,0,0,0,0,0,0,0,0,0,0,0,0,0,0],"id":14,"left_children":[1,3,5,7,9,11,-1,13,15,17,-1,-1,-1,-1,-1,-1,-1,-1,-1],"loss_changes":[3.3970474E1,2.4679802E1,6.973789E0,1.0465557E1,2.8984882E1,3.0643196E0,0E0,1.9392185E0,9.765475E0,1.7256931E1,0E0,0E0,0E0,0E0,0E0,0E0,0E0,0E0,0E0],"parents":[2147483647,0,0,1,1,2,2,3,3,4,4,5,5,7,7,8,8,9,9],"right_children":[2,4,6,8,10,12,-1,14,16,18,-1,-1,-1,-1,-1,-1,-1,-1,-1],"split_conditions":[5.25E0,2E0,5E0,2.9411766E-1,1.9E1,1E0,1.4853668E-2,1.0740863E0,1E0,7.5E-1,-1.0337914E-1,4.9740978E-2,1.1042237E-1,5.284813E-2,1.0491024E-1,-2.750115E-2,5.391292E-2,-2.2741286E-2,3.8032427E-2],"split_indices":[25,4,20,26,16,41,0,23,51,25,0,0,0,0,0,0,0,0,0],"split_type":[0,0,0,0,0,0,0,0,0,0,0,0,0,0,0,0,0,0,0],"sum_hessian":[2.963918E2,2.5266281E2,4.3728992E1,6.495363E1,1.8770918E2,3.2738243E1,1.0990751E1,2.668849E1,3.8265137E1,1.6425516E2,2.3454021E1,1.108206E1,2.1656183E1,1.5600669E1,1.1087822E1,2.0526905E1,1.7738232E1,1.2255959E2,4.169557E1],"tree_param":{"num_deleted":"0","num_feature":"53","num_nodes":"19","size_leaf_vector":"1"}},{"base_weights":[8.586477E-3,-2.9521874E-1,5.448274E-1,5.8338072E-2,-6.065559E-1,9.4560826E-1,1.5294838E-1,2.8102678E-1,-8.77712E-2,-9.660458E-1,-1.7048708E-1,6.8760735E-1,1.0419957E-1,6.68878E-1,-3.309959E-1,5.4737456E-2,-3.67878E-2,1.8132417E-2,-1.0443603E-1,-7.016973E-2,3.371183E-2,9.895101E-2,2.5718499E-2,8.9420676E-2,1.2841108E-2,-6.309892E-2,2.9115818E-2],"categories":[],"categories_nodes":[],"categories_segments":[],"categories_sizes":[],"default_left":[0,0,0,0,0,0,0,0,0,0,0,0,0,0,0,0,0,0,0,0,0,0,0,0,0,0,0],"id":15,"left_children":[1,3,5,7,9,11,13,15,-1,17,19,21,-1,23,25,-1,-1,-1,-1,-1,-1,-1,-1,-1,-1,-1,-1],"loss_changes":[4.6301945E1,2.0007996E1,1.5997894E1,2.1786844E1,1.4973984E1,3.2976494E0,1.349458E1,2.0505037E1,0E0,1.9133133E1,1.8058142E1,5.4425173E0,0E0,5.398596E0,8.633115E0,0E0,0E0,0E0,0E0,0E0,0E0,0E0,0E0,0E0,0E0,0E0,0E0],"parents":[2147483647,0,0,1,1,2,2,3,3,4,4,5,5,6,6,7,7,9,9,10,10,11,11,13,13,14,14],"right_children":[2,4,6,8,10,12,14,16,-1,18,20,22,-1,24,26,-1,-1,-1,-1,-1,-1,-1,-1,-1,-1,-1,-1],"split_conditions":[6.666667E-1,3.3E1,2.75E0,1E0,1.0524626E0,1.8518518E-1,8.318995E-1,6.8421054E-1,-8.77712E-2,1.02564104E-1,1.5E1,7.517835E-1,1.0419957E-1,4.4444445E-1,1E0,5.4737456E-2,-3.67878E-2,1.8132417E-2,-1.0443603E-1,-7.016973E-2,3.371183E-2,9.895101E-2,2.5718499E-2,8.9420676E-2,1.2841108E-2,-6.309892E-2,2.9115818E-2],"split_indices":[25,0,27,47,23,28,23,30,0,28,12,23,0,30,51,0,0,0,0,0,0,0,0,0,0,0,0],"split_type":[0,0,0,0,0,0,0,0,0,0,0,0,0,0,0,0,0,0,0,0,0,0,0,0,0,0,0],"sum_hessian":[2.8222577E2,1.8044489E2,1.0178088E2,8.487397E1,9.557091E1,4.9620354E1,5.216053E1,7.146125E1,1.3412718E1,5.1719017E1,4.3851894E1,2.9180706E1,2.0439646E1,2.5061016E1,2.7099516E1,4.6858448E1,2.4602804E1,1.0537207E1,4.118181E1,1.9944717E1,2.3907177E1,1.1397525E1,1.7783182E1,1.3216868E1,1.1844148E1,1.6497885E1,1.0601631E1],"tree_param":{"num_deleted":"0","num_feature":"53","num_nodes":"27","size_leaf_vector":"1"}},{"base_weights":[1.6960925E-1,6.7111903E-1,-1.5267087E-3,8.0711794E-1,1.1957803E-2,6.577038E-1,-1.9340262E-1,9.500181E-1,2.9020086E-2,3.4522942E-1,9.543556E-1,1.7834823E-1,-5.780619E-1,5.6603976E-2,1.036828E-1,7.3723264E-2,-4.830332E-3,5.3626347E-2,9.2982404E-2,-1.6764203E-2,6.0769957E-2,8.752582E-3,-6.499308E-2],"categories":[],"categories_nodes":[],"categories_segments":[],"categories_sizes":[],"default_left":[0,0,0,0,0,0,0,0,0,0,0,0,0,0,0,0,0,0,0,0,0,0,0],"id":16,"left_children":[1,3,5,7,-1,9,11,13,-1,15,17,19,21,-1,-1,-1,-1,-1,-1,-1,-1,-1,-1],"loss_changes":[2.5380432E1,5.264778E0,2.8141031E1,3.537094E0,0E0,4.3197975E0,2.4743528E1,2.763836E0,0E0,5.8215656E0,5.9565353E-1,1.9023796E1,1.2332201E1,0E0,0E0,0E0,0E0,0E0,0E0,0E0,0E0,0E0,0E0],"parents":[2147483647,0,0,1,1,2,2,3,3,5,5,6,6,7,7,9,9,10,10,11,11,12,12],"right_children":[2,4,6,8,-1,10,12,14,-1,16,18,20,22,-1,-1,-1,-1,-1,-1,-1,-1,-1,-1],"split_conditions":[2E0,2.1534E4,2.45E3,1.7E1,1.1957803E-2,1E0,1E0,1.3384E4,2.9020086E-2,1.3E1,6.2E1,3.3333334E-1,2E0,5.6603976E-2,1.036828E-1,7.3723264E-2,-4.830332E-3,5.3626347E-2,9.2982404E-2,-1.6764203E-2,6.0769957E-2,8.752582E-3,-6.499308E-2],"split_indices":[4,10,9,12,0,52,15,10,0,12,5,24,14,0,0,0,0,0,0,0,0,0,0],"split_type":[0,0,0,0,0,0,0,0,0,0,0,0,0,0,0,0,0,0,0,0,0,0,0],"sum_hessian":[2.9470645E2,7.4236534E1,2.2046991E2,5.8560585E1,1.5675947E1,4.915606E1,1.7131386E2,4.3733704E1,1.4826881E1,2.499337E1,2.4162691E1,8.739144E1,8.392242E1,2.5346205E1,1.8387497E1,1.0071924E1,1.4921446E1,1.0538583E1,1.3624107E1,5.2311474E1,3.5079967E1,1.9879078E1,6.4043335E1],"tree_param":{"num_deleted":"0","num_feature":"53","num_nodes":"23","size_leaf_vector":"1"}},{"base_weights":[1.5799265E-1,7.936241E-1,4.1112993E-2,6.061782E-1,1.0136212E-1,9.5780927E-1,-5.5947736E-2,1.703648E-2,6.674517E-2,4.0654708E-2,1.0910253E-1,7.20761E-1,-1.4350444E-1,1.9169364E-2,9.847633E-2,-2.4595117E-2,2.6382318E-2],"categories":[],"categories_nodes":[],"categories_segments":[],"categories_sizes":[],"default_left":[0,0,0,0,0,0,0,0,0,0,0,0,0,0,0,0,0],"id":17,"left_children":[1,3,5,7,-1,9,11,-1,-1,-1,-1,13,15,-1,-1,-1,-1],"loss_changes":[2.162167E1,2.955E0,2.2053339E1,2.5696812E0,0E0,3.3838177E0,1.5372738E1,0E0,0E0,0E0,0E0,5.028142E0,1.4659789E1,0E0,0E0,0E0,0E0],"parents":[2147483647,0,0,1,1,2,2,3,3,5,5,6,6,11,11,12,12],"right_children":[2,4,6,8,-1,10,12,-1,-1,-1,-1,14,16,-1,-1,-1,-1],"split_conditions":[3E0,1E0,2E0,1E0,1.0136212E-1,1.7391305E-1,2E0,1.703648E-2,6.674517E-2,4.0654708E-2,1.0910253E-1,1E0,1E0,1.9169364E-2,9.847633E-2,-2.4595117E-2,2.6382318E-2],"split_indices":[16,32,18,51,0,24,6,0,0,0,0,35,32,0,0,0,0],"split_type":[0,0,0,0,0,0,0,0,0,0,0,0,0,0,0,0,0],"sum_hessian":[2.9047403E2,4.421697E1,2.4625706E2,3.2607014E1,1.1609952E1,2.2728466E1,2.2352861E2,1.1701788E1,2.0905228E1,1.1058869E1,1.1669597E1,2.1912508E1,2.0161609E2,1.1535724E1,1.0376785E1,1.513713E2,5.024478E1],"tree_param":{"num_deleted":"0","num_feature":"53","num_nodes":"17","size_leaf_vector":"1"}},{"base_weights":[-5.4405674E-2,3.6932302E-1,-5.23716E-1,1.6166584E-1,7.6718414E-1,-6.5990025E-1,5.9164338E-2,4.3095422E-1,-5.8548486E-1,1.004987E0,2.3764482E-2,-8.991055E-1,-1.1542463E-2,-4.2219136E-2,5.1685974E-2,-8.261571E-2,4.9592946E-3,5.5098463E-2,1.2561592E-1,-8.771471E-2,7.676269E-3,5.8492932E-2,-3.5793945E-2],"categories":[],"categories_nodes":[],"categories_segments":[],"categories_sizes":[],"default_left":[0,0,0,0,0,0,0,0,0,0,0,0,0,0,0,0,0,0,0,0,0,0,0],"id":18,"left_children":[1,3,5,7,9,11,-1,13,15,17,-1,19,21,-1,-1,-1,-1,-1,-1,-1,-1,-1,-1],"loss_changes":[5.444781E1,1.1769966E1,2.2435787E1,1.9539015E1,5.3004875E0,1.8220688E1,0E0,1.3481375E1,7.01635E0,4.642441E0,0E0,1.4199295E1,1.0283761E1,0E0,0E0,0E0,0E0,0E0,0E0,0E0,0E0,0E0,0E0],"parents":[2147483647,0,0,1,1,2,2,3,3,4,4,5,5,7,7,8,8,9,9,11,11,12,12],"right_children":[2,4,6,8,10,12,-1,14,16,18,-1,20,22,-1,-1,-1,-1,-1,-1,-1,-1,-1,-1],"split_conditions":[1E0,3.181818E-1,7.3333335E0,7.222222E-1,6.8E1,1E0,5.9164338E-2,1.0195E4,4E0,1.1786064E0,2.3764482E-2,3E0,7.973E3,-4.2219136E-2,5.1685974E-2,-8.261571E-2,4.9592946E-3,5.5098463E-2,1.2561592E-1,-8.771471E-2,7.676269E-3,5.8492932E-2,-3.5793945E-2],"split_indices":[15,24,25,30,5,43,0,10,3,23,0,15,10,0,0,0,0,0,0,0,0,0,0],"split_type":[0,0,0,0,0,0,0,0,0,0,0,0,0,0,0,0,0,0,0,0,0,0,0],"sum_hessian":[2.7182672E2,1.4296248E2,1.2886424E2,9.48588E1,4.810368E1,1.165511E2,1.2313133E1,7.003865E1,2.4820158E1,3.1405071E1,1.6698608E1,8.485715E1,3.1693956E1,1.1789806E1,5.824884E1,1.474129E1,1.0078868E1,2.0455667E1,1.0949403E1,7.266423E1,1.219292E1,1.1461413E1,2.0232542E1],"tree_param":{"num_deleted":"0","num_feature":"53","num_nodes":"23","size_leaf_vector":"1"}},{"base_weights":[-4.307155E-2,2.2965221E-1,-4.276907E-1,5.420625E-1,-2.9439172E-1,-1.0288785E-1,-2.318756E-1,6.992226E-1,-7.486928E-3,4.451187E-2,-6.462423E-1,-7.171712E-1,1.14686415E-1,8.945162E-2,3.7335042E-2,-8.272052E-3,-8.150909E-2,-1.188878E-1,-3.3748075E-2,-7.33537E-2,4.531237E-2],"categories":[],"categories_nodes":[],"categories_segments":[],"categories_sizes":[],"default_left":[0,0,0,0,0,0,0,0,0,0,0,0,0,0,0,0,0,0,0,0,0],"id":19,"left_children":[1,3,5,7,9,-1,11,13,-1,-1,15,17,19,-1,-1,-1,-1,-1,-1,-1,-1],"loss_changes":[2.8465523E1,2.6171844E1,1.780622E1,1.0000267E1,1.7966604E1,0E0,1.5572958E1,7.12949E0,0E0,0E0,7.8881016E0,8.005468E0,2.4372498E1,0E0,0E0,0E0,0E0,0E0,0E0,0E0,0E0],"parents":[2147483647,0,0,1,1,2,2,3,3,4,4,6,6,7,7,10,10,11,11,12,12],"right_children":[2,4,6,8,10,-1,12,14,-1,-1,16,18,20,-1,-1,-1,-1,-1,-1,-1,-1],"split_conditions":[3.6E1,6.8421054E-1,5E1,1E0,2E0,-1.0288785E-1,4.3E1,3E0,-7.486928E-3,4.451187E-2,1E0,5.71E2,3E0,8.945162E-2,3.7335042E-2,-8.272052E-3,-8.150909E-2,-1.188878E-1,-3.3748075E-2,-7.33537E-2,4.531237E-2],"split_indices":[0,30,5,47,14,0,0,18,0,0,34,1,22,0,0,0,0,0,0,0,0],"split_type":[0,0,0,0,0,0,0,0,0,0,0,0,0,0,0,0,0,0,0,0,0],"sum_hessian":[2.694358E2,1.5788583E2,1.1154995E2,9.889494E1,5.8990887E1,2.0444784E1,9.110516E1,7.913951E1,1.9755434E1,1.733478E1,4.1656105E1,3.7510002E1,5.3595165E1,2.9460125E1,4.9679382E1,1.6575218E1,2.5080889E1,1.0065544E1,2.7444458E1,1.5881575E1,3.771359E1],"tree_param":{"num_deleted":"0","num_feature":"53","num_nodes":"21","size_leaf_vector":"1"}},{"base_weights":[2.0833594E-1,4.8132712E-1,-1.009597E-1,1.1020054E0,2.7040488E-1,1.3995245E-1,-7.7538615E-1,1.0840263E-1,3.8978476E-2,-4.1309375E-4,8.413428E-1,7.8991866E-1,-1.6511416E-1,1.7357003E-2,-1.2645099E0,4.1369956E-2,-4.538735E-2,4.4522673E-2,9.872456E-2,3.7660025E-2,1.11205705E-1,-4.297322E-2,3.5316497E-2,-1.2276022E-1,-6.984364E-2],"categories":[],"categories_nodes":[],"categories_segments":[],"categories_sizes":[],"default_left":[0,0,0,0,0,0,0,0,0,0,0,0,0,0,0,0,0,0,0,0,0,0,0,0,0],"id":20,"left_children":[1,3,5,7,9,11,13,-1,-1,15,17,19,21,-1,23,-1,-1,-1,-1,-1,-1,-1,-1,-1,-1],"loss_changes":[2.5578457E1,2.0750477E1,2.3274794E1,4.814556E0,1.8759764E1,2.1128967E1,1.8439285E1,0E0,0E0,2.331688E1,3.5452976E0,5.7182064E0,1.5653103E1,0E0,1.1171303E0,0E0,0E0,0E0,0E0,0E0,0E0,0E0,0E0,0E0,0E0],"parents":[2147483647,0,0,1,1,2,2,3,3,4,4,5,5,6,6,9,9,10,10,11,11,12,12,14,14],"right_children":[2,4,6,8,10,12,14,-1,-1,16,18,20,22,-1,24,-1,-1,-1,-1,-1,-1,-1,-1,-1,-1],"split_conditions":[1E0,2.25E0,1.092E3,7.222222E-1,6.666667E-1,2.8E-1,2.9E1,1.0840263E-1,3.8978476E-2,3.3E1,1E0,2E0,6.666667E-1,1.7357003E-2,6.646E3,4.1369956E-2,-4.538735E-2,4.4522673E-2,9.872456E-2,3.7660025E-2,1.11205705E-1,-4.297322E-2,3.5316497E-2,-1.2276022E-1,-6.984364E-2],"split_indices":[15,27,1,30,25,26,0,0,0,0,48,31,25,0,9,0,0,0,0,0,0,0,0,0,0],"split_type":[0,0,0,0,0,0,0,0,0,0,0,0,0,0,0,0,0,0,0,0,0,0,0,0,0],"sum_hessian":[3.0136124E2,1.5977983E2,1.4158142E2,3.945409E1,1.2032574E2,1.0490186E2,3.667955E1,2.8632866E1,1.0821223E1,8.2291145E1,3.8034595E1,3.300117E1,7.190069E1,1.2350596E1,2.4328955E1,4.3064495E1,3.9226646E1,2.199822E1,1.6036377E1,2.1835497E1,1.1165676E1,4.500415E1,2.6896538E1,1.4117687E1,1.02112665E1],"tree_param":{"num_deleted":"0","num_feature":"53","num_nodes":"25","size_leaf_vector":"1"}},{"base_weights":[8.461164E-2,3.7613538E-1,-2.1611828E-1,1.0368996E0,1.741474E-1,5.4197747E-2,-6.3017786E-1,1.00991115E-1,4.6676703E-2,6.2271565E-1,-1.9146347E-1,-1.6674027E-1,8.654928E-2,-1.0915953E0,-7.827033E-2,7.6170444E-2,1.731013E-2,-5.146735E-2,4.007703E-2,4.0590417E-2,-3.3246372E-2,-3.9572455E-2,-1.12796865E-1,-5.237943E-2,4.2819057E-2],"categories":[],"categories_nodes":[],"categories_segments":[],"categories_sizes":[],"default_left":[0,0,0,0,0,0,0,0,0,0,0,0,0,0,0,0,0,0,0,0,0,0,0,0,0],"id":21,"left_children":[1,3,5,7,9,11,13,-1,-1,15,17,19,-1,21,23,-1,-1,-1,-1,-1,-1,-1,-1,-1,-1],"loss_changes":[2.5150995E1,1.9247496E1,1.58595495E1,2.3149834E0,1.8600098E1,1.9207186E1,1.4156628E1,0E0,0E0,6.1361313E0,1.8760513E1,1.1382888E1,0E0,4.4953804E0,9.178598E0,0E0,0E0,0E0,0E0,0E0,0E0,0E0,0E0,0E0,0E0],"parents":[2147483647,0,0,1,1,2,2,3,3,4,4,5,5,6,6,9,9,10,10,11,11,13,13,14,14],"right_children":[2,4,6,8,10,12,14,-1,-1,16,18,20,-1,22,24,-1,-1,-1,-1,-1,-1,-1,-1,-1,-1],"split_conditions":[1E0,2.25E0,6.8421054E-1,6.8421054E-1,1E0,6.1538464E-1,8.888889E-1,1.00991115E-1,4.6676703E-2,6.5E1,1E0,2.45E3,8.654928E-2,3.812E3,7.637E3,7.6170444E-2,1.731013E-2,-5.146735E-2,4.007703E-2,4.0590417E-2,-3.3246372E-2,-3.9572455E-2,-1.12796865E-1,-5.237943E-2,4.2819057E-2],"split_indices":[15,27,30,30,34,30,30,0,0,5,43,9,0,9,9,0,0,0,0,0,0,0,0,0,0],"split_type":[0,0,0,0,0,0,0,0,0,0,0,0,0,0,0,0,0,0,0,0,0,0,0,0,0],"sum_hessian":[2.8495566E2,1.4456523E2,1.4039043E2,3.2877956E1,1.1168727E2,8.546456E1,5.4925865E1,2.2313435E1,1.056452E1,4.98379E1,6.1849373E1,7.0633194E1,1.4831366E1,2.9382782E1,2.5543081E1,2.806857E1,2.1769327E1,3.7782684E1,2.4066687E1,1.8376486E1,5.2256706E1,1.0025217E1,1.9357567E1,1.3186564E1,1.2356516E1],"tree_param":{"num_deleted":"0","num_feature":"53","num_nodes":"25","size_leaf_vector":"1"}},{"base_weights":[8.314888E-2,-7.263056E-1,1.8949848E-1,-1.03004076E-1,-2.7892025E-2,-2.8701934E-1,3.4125462E-1,5.4986145E-2,-7.286416E-1,-3.5803016E-2,4.2631555E-1,-3.191262E-2,-9.929508E-2,7.380257E-2,2.1804255E-2],"categories":[],"categories_nodes":[],"categories_segments":[],"categories_sizes":[],"default_left":[0,0,0,0,0,0,0,0,0,0,0,0,0,0,0],"id":22,"left_children":[1,3,5,-1,-1,7,9,-1,11,-1,13,-1,-1,-1,-1],"loss_changes":[2.3201694E1,5.9392643E0,1.7279987E1,0E0,0E0,2.4904713E1,1.2107567E1,0E0,6.052803E0,0E0,1.2158293E1,0E0,0E0,0E0,0E0],"parents":[2147483647,0,0,1,1,2,2,5,5,6,6,8,8,10,10],"right_children":[2,4,6,-1,-1,8,10,-1,12,-1,14,-1,-1,-1,-1],"split_conditions":[1E0,1.1275E4,1.4285715E-1,-1.03004076E-1,-2.7892025E-2,3.4E1,1E0,5.4986145E-2,8.9E2,-3.5803016E-2,2.622E3,-3.191262E-2,-9.929508E-2,7.380257E-2,2.1804255E-2],"split_indices":[11,10,28,0,0,0,31,0,1,0,9,0,0,0,0],"split_type":[0,0,0,0,0,0,0,0,0,0,0,0,0,0,0],"sum_hessian":[2.6692142E2,3.0319834E1,2.3660156E2,1.1950681E1,1.8369152E1,5.693453E1,1.7966704E2,1.7849173E1,3.9085354E1,1.7346699E1,1.6232034E2,2.382992E1,1.5255434E1,4.0418495E1,1.2190185E2],"tree_param":{"num_deleted":"0","num_feature":"53","num_nodes":"15","size_leaf_vector":"1"}},{"base_weights":[-2.451856E-3,-2.1564351E-1,3.691248E-1,1.8523769E-1,-5.0796735E-1,6.896672E-1,-7.837209E-2,6.1153686E-1,-4.6680215E-1,-8.744269E-1,1.52211655E-2,9.007194E-1,1.9679757E-2,-5.9137934E-1,8.847069E-2,1.6436229E-2,8.872494E-2,-9.060495E-2,-3.4730816E-3,-9.273404E-2,-2.2743443E-2,6.0144335E-2,-2.4842314E-2,9.799624E-2,5.1733825E-2,-8.020326E-2,1.2792505E-2],"categories":[],"categories_nodes":[],"categories_segments":[],"categories_sizes":[],"default_left":[0,0,0,0,0,0,0,0,0,0,0,0,0,0,0,0,0,0,0,0,0,0,0,0,0,0,0],"id":23,"left_children":[1,3,5,7,9,11,13,15,17,19,21,23,-1,25,-1,-1,-1,-1,-1,-1,-1,-1,-1,-1,-1,-1,-1],"loss_changes":[2.1737913E1,2.0526793E1,1.4404703E1,2.0927086E1,1.939686E1,5.3406467E0,2.5845148E1,8.477865E0,7.995959E0,8.625469E0,9.8706E0,2.3571377E0,0E0,8.753786E0,0E0,0E0,0E0,0E0,0E0,0E0,0E0,0E0,0E0,0E0,0E0,0E0,0E0],"parents":[2147483647,0,0,1,1,2,2,3,3,4,4,5,5,6,6,7,7,8,8,9,9,10,10,11,11,13,13],"right_children":[2,4,6,8,10,12,14,16,18,20,22,24,-1,26,-1,-1,-1,-1,-1,-1,-1,-1,-1,-1,-1,-1,-1],"split_conditions":[1E0,1E0,3.6E1,6.5E1,1E0,8.9E2,7E0,6.646E3,2E0,1.5E1,2E0,2.496E3,1.9679757E-2,4E0,8.847069E-2,1.6436229E-2,8.872494E-2,-9.060495E-2,-3.4730816E-3,-9.273404E-2,-2.2743443E-2,6.0144335E-2,-2.4842314E-2,9.799624E-2,5.1733825E-2,-8.020326E-2,1.2792505E-2],"split_indices":[52,34,0,5,43,1,11,9,11,2,14,9,0,14,0,0,0,0,0,0,0,0,0,0,0,0,0],"split_type":[0,0,0,0,0,0,0,0,0,0,0,0,0,0,0,0,0,0,0,0,0,0,0,0,0,0,0],"sum_hessian":[2.7240475E2,1.7335956E2,9.904518E1,7.326003E1,1.0009953E2,5.739321E1,4.165197E1,4.4335743E1,2.8924286E1,5.8472214E1,4.162732E1,3.841211E1,1.8981102E1,2.9156534E1,1.2495438E1,2.4272009E1,2.0063734E1,1.0976079E1,1.7948208E1,4.0567547E1,1.7904665E1,1.2381657E1,2.9245663E1,1.7030949E1,2.1381159E1,1.9086205E1,1.0070329E1],"tree_param":{"num_deleted":"0","num_feature":"53","num_nodes":"27","size_leaf_vector":"1"}},{"base_weights":[-2.4217553E-3,3.093655E-1,-2.835012E-1,1.272826E-1,9.076316E-1,-6.1095226E-1,2.1044677E-1,7.7986026E-1,-1.4993332E-1,1.0152775E-1,2.7339386E-2,-8.173961E-1,7.637123E-3,-4.570133E-2,6.179718E-1,1.00678176E-1,3.7359934E-2,2.3454266E-2,-5.3128034E-2,-4.9621824E-2,-1.1178549E-1,1.6335335E-2,9.5548086E-2],"categories":[],"categories_nodes":[],"categories_segments":[],"categories_sizes":[],"default_left":[0,0,0,0,0,0,0,0,0,0,0,0,0,0,0,0,0,0,0,0,0,0,0],"id":24,"left_children":[1,3,5,7,9,11,13,15,17,-1,-1,19,-1,-1,21,-1,-1,-1,-1,-1,-1,-1,-1],"loss_changes":[2.2892246E1,1.3375641E1,2.2347115E1,1.7504126E1,4.96237E0,1.2112701E1,1.7650131E1,3.604351E0,1.4872653E1,0E0,0E0,6.628414E0,0E0,0E0,8.111823E0,0E0,0E0,0E0,0E0,0E0,0E0,0E0,0E0],"parents":[2147483647,0,0,1,1,2,2,3,3,4,4,5,5,6,6,7,7,8,8,11,11,14,14],"right_children":[2,4,6,8,10,12,14,16,18,-1,-1,20,-1,-1,22,-1,-1,-1,-1,-1,-1,-1,-1],"split_conditions":[2E0,2E0,4E0,2E0,3.2E1,1E0,1E0,9.375E-2,3E1,1.0152775E-1,2.7339386E-2,9.907E3,7.637123E-3,-4.570133E-2,5.588235E-1,1.00678176E-1,3.7359934E-2,2.3454266E-2,-5.3128034E-2,-4.9621824E-2,-1.1178549E-1,1.6335335E-2,9.5548086E-2],"split_indices":[7,31,11,8,0,37,41,28,0,0,0,9,0,0,30,0,0,0,0,0,0,0,0],"split_type":[0,0,0,0,0,0,0,0,0,0,0,0,0,0,0,0,0,0,0,0,0,0,0],"sum_hessian":[2.592159E2,1.22847145E2,1.3636877E2,9.511236E1,2.773479E1,8.186287E1,5.450591E1,2.7816942E1,6.729541E1,1.7006641E1,1.072815E1,6.3168182E1,1.8694687E1,1.881653E1,3.568938E1,1.06496525E1,1.716729E1,3.6056374E1,3.1239038E1,4.6670406E1,1.6497774E1,2.0878937E1,1.4810443E1],"tree_param":{"num_deleted":"0","num_feature":"53","num_nodes":"23","size_leaf_vector":"1"}},{"base_weights":[-6.110116E-2,2.8724784E-1,-4.6012262E-1,2.5117958E-2,7.205961E-1,-6.8108195E-1,-3.4933865E-2,2.586573E-1,-4.4522268E-1,8.569381E-1,2.4627853E-2,7.6334686E-3,-8.231679E-1,-5.4434896E-1,7.133537E-2,5.8529377E-2,-2.3731733E-2,-9.586361E-2,3.2436445E-2,8.89326E-2,3.5751816E-2,-3.5062425E-2,-1.1518935E-1,-1.390852E-2,-8.889311E-2],"categories":[],"categories_nodes":[],"categories_segments":[],"categories_sizes":[],"default_left":[0,0,0,0,0,0,0,0,0,0,0,0,0,0,0,0,0,0,0,0,0,0,0,0,0],"id":25,"left_children":[1,3,5,7,9,11,13,15,17,19,-1,-1,21,23,-1,-1,-1,-1,-1,-1,-1,-1,-1,-1,-1],"loss_changes":[3.5637104E1,1.5543273E1,1.1197693E1,9.605032E0,2.7103138E0,8.710987E0,1.9696741E1,1.4617595E1,1.795247E1,3.15024E0,0E0,0E0,1.4596661E1,5.3138E0,0E0,0E0,0E0,0E0,0E0,0E0,0E0,0E0,0E0,0E0,0E0],"parents":[2147483647,0,0,1,1,2,2,3,3,4,4,5,5,6,6,7,7,8,8,9,9,12,12,13,13],"right_children":[2,4,6,8,10,12,14,16,18,20,-1,-1,22,24,-1,-1,-1,-1,-1,-1,-1,-1,-1,-1,-1],"split_conditions":[1E0,6.666667E-1,1.5E1,7E-1,4E0,1.2E1,2.3529412E-1,8.3936495E-1,3.181818E-1,4.347826E-2,2.4627853E-2,7.6334686E-3,6.4285713E-1,6.4705884E-1,7.133537E-2,5.8529377E-2,-2.3731733E-2,-9.586361E-2,3.2436445E-2,8.89326E-2,3.5751816E-2,-3.5062425E-2,-1.1518935E-1,-1.390852E-2,-8.889311E-2],"split_indices":[15,25,2,30,3,12,28,23,24,24,0,0,30,30,0,0,0,0,0,0,0,0,0,0,0],"split_type":[0,0,0,0,0,0,0,0,0,0,0,0,0,0,0,0,0,0,0,0,0,0,0,0,0],"sum_hessian":[2.5443352E2,1.3599173E2,1.1844178E2,8.5394844E1,5.0596893E1,7.754294E1,4.089884E1,5.7362545E1,2.8032295E1,3.7454575E1,1.3142319E1,1.208451E1,6.545843E1,2.6377035E1,1.4521809E1,3.1245447E1,2.6117096E1,1.4893344E1,1.3138951E1,2.3529207E1,1.3925367E1,3.9724873E1,2.5733553E1,1.6265863E1,1.0111171E1],"tree_param":{"num_deleted":"0","num_feature":"53","num_nodes":"25","size_leaf_vector":"1"}},{"base_weights":[1.2245973E-1,5.0202143E-1,-6.924723E-2,7.2924465E-1,-1.0384244E-1,6.1901625E-2,-7.457571E-1,2.550901E-1,9.6442026E-1,-5.2538946E-2,3.9343096E-2,5.73861E-1,-1.8132931E-1,-1.0039861E-1,-7.557101E-3,7.1103975E-2,-3.6923125E-2,9.573942E-2,3.995721E-2,6.2493905E-2,-6.1585633E-3,-4.5660295E-2,3.1460993E-2],"categories":[],"categories_nodes":[],"categories_segments":[],"categories_sizes":[],"default_left":[0,0,0,0,0,0,0,0,0,0,0,0,0,0,0,0,0,0,0,0,0,0,0],"id":26,"left_children":[1,3,5,7,9,11,13,15,17,-1,-1,19,21,-1,-1,-1,-1,-1,-1,-1,-1,-1,-1],"loss_changes":[1.934571E1,1.2352922E1,1.5768712E1,7.0000496E0,8.125056E0,1.8702566E1,8.810106E0,1.0178333E1,3.5173798E0,0E0,0E0,5.846428E0,2.1632658E1,0E0,0E0,0E0,0E0,0E0,0E0,0E0,0E0,0E0,0E0],"parents":[2147483647,0,0,1,1,2,2,3,3,4,4,5,5,6,6,7,7,8,8,11,11,12,12],"right_children":[2,4,6,8,10,12,14,16,18,-1,-1,20,22,-1,-1,-1,-1,-1,-1,-1,-1,-1,-1],"split_conditions":[2.5E0,7.222222E-1,1E0,8E0,1.6E1,2.973E3,2.6666668E-1,3.376E3,1E0,-5.2538946E-2,3.9343096E-2,1.8E1,6.666667E-1,-1.0039861E-1,-7.557101E-3,7.1103975E-2,-3.6923125E-2,9.573942E-2,3.995721E-2,6.2493905E-2,-6.1585633E-3,-4.5660295E-2,3.1460993E-2],"split_indices":[27,30,47,2,12,9,24,9,36,0,0,12,25,0,0,0,0,0,0,0,0,0,0],"split_type":[0,0,0,0,0,0,0,0,0,0,0,0,0,0,0,0,0,0,0,0,0,0,0],"sum_hessian":[2.6438922E2,8.8180824E1,1.762084E2,6.398154E1,2.4199284E1,1.483564E2,2.7852015E1,2.1903996E1,4.2077545E1,1.256477E1,1.1634515E1,4.7344666E1,1.0101173E2,1.5664797E1,1.2187218E1,1.1626349E1,1.0277645E1,2.8789389E1,1.32881565E1,3.672163E1,1.0623037E1,6.0784515E1,4.022721E1],"tree_param":{"num_deleted":"0","num_feature":"53","num_nodes":"23","size_leaf_vector":"1"}},{"base_weights":[1.8783925E-2,-1.4011823E-1,4.9211168E-1,-2.3935914E-1,7.079051E-2,7.8203514E-2,2.9222864E-1,-4.836831E-1,1.3971603E-1,6.3827837E-1,-1.5707131E-2,-5.9669178E-2,-8.6507285E-3,3.8274016E-2,-7.953512E-2,7.095913E-2,2.4987238E-2],"categories":[],"categories_nodes":[],"categories_segments":[],"categories_sizes":[],"default_left":[0,0,0,0,0,0,0,0,0,0,0,0,0,0,0,0,0],"id":27,"left_children":[1,3,5,7,-1,-1,9,11,13,15,-1,-1,-1,-1,-1,-1,-1],"loss_changes":[1.9676283E1,1.9638502E1,5.728795E0,1.6648758E1,0E0,0E0,8.006072E0,9.86047E0,2.5912611E1,1.8090715E0,0E0,0E0,0E0,0E0,0E0,0E0,0E0],"parents":[2147483647,0,0,1,1,2,2,3,3,6,6,7,7,8,8,9,9],"right_children":[2,4,6,8,-1,-1,10,12,14,16,-1,-1,-1,-1,-1,-1,-1],"split_conditions":[5E0,1E0,2E0,5E-1,7.079051E-2,7.8203514E-2,1.4E1,3.7E1,1.3E1,3E0,-1.5707131E-2,-5.9669178E-2,-8.6507285E-3,3.8274016E-2,-7.953512E-2,7.095913E-2,2.4987238E-2],"split_indices":[11,49,8,25,0,0,12,0,16,4,0,0,0,0,0,0,0],"split_type":[0,0,0,0,0,0,0,0,0,0,0,0,0,0,0,0,0],"sum_hessian":[2.5969138E2,1.9494862E2,6.474276E1,1.7802925E2,1.6919378E1,1.8558199E1,4.6184563E1,1.0808783E2,6.994142E1,2.671636E1,1.9468203E1,6.554354E1,4.254429E1,5.4500816E1,1.5440604E1,1.5097251E1,1.1619109E1],"tree_param":{"num_deleted":"0","num_feature":"53","num_nodes":"17","size_leaf_vector":"1"}},{"base_weights":[3.5254437E-2,-1.5380177E-1,3.757133E-1,-4.9230537E-1,2.1827105E-1,6.417169E-1,5.3586237E-2,-6.388169E-1,4.694721E-2,-8.738929E-2,6.281948E-1,8.876765E-2,4.2784974E-1,7.221418E-2,-2.8383738E-1,-7.975582E-2,2.4197334E-3,6.675836E-2,-4.5795564E-2,9.5788516E-2,1.2192304E-2,5.998145E-2,-1.108467E-2,2.5489565E-2,-6.2561244E-2],"categories":[],"categories_nodes":[],"categories_segments":[],"categories_sizes":[],"default_left":[0,0,0,0,0,0,0,0,0,0,0,0,0,0,0,0,0,0,0,0,0,0,0,0,0],"id":28,"left_children":[1,3,5,7,9,11,13,15,-1,17,19,-1,21,-1,23,-1,-1,-1,-1,-1,-1,-1,-1,-1,-1],"loss_changes":[1.648187E1,2.0860289E1,7.7969427E0,1.3837786E1,9.976854E0,4.1947803E0,1.2029388E1,1.6869143E1,0E0,1.9894278E1,8.539773E0,0E0,6.0354104E0,0E0,8.935044E0,0E0,0E0,0E0,0E0,0E0,0E0,0E0,0E0,0E0,0E0],"parents":[2147483647,0,0,1,1,2,2,3,3,4,4,5,5,6,6,7,7,9,9,10,10,12,12,14,14],"right_children":[2,4,6,8,10,12,14,16,-1,18,20,-1,22,-1,24,-1,-1,-1,-1,-1,-1,-1,-1,-1,-1],"split_conditions":[5E-1,9E0,1E0,1E0,1.0524626E0,2.5E0,1.25E0,1.1497698E0,4.694721E-2,2E0,1.2054722E0,8.876765E-2,1E1,7.221418E-2,7.858091E-1,-7.975582E-2,2.4197334E-3,6.675836E-2,-4.5795564E-2,9.5788516E-2,1.2192304E-2,5.998145E-2,-1.108467E-2,2.5489565E-2,-6.2561244E-2],"split_indices":[25,2,15,49,23,27,25,23,0,8,23,0,16,0,23,0,0,0,0,0,0,0,0,0,0],"split_type":[0,0,0,0,0,0,0,0,0,0,0,0,0,0,0,0,0,0,0,0,0,0,0,0,0],"sum_hessian":[2.5416768E2,1.6377304E2,9.039464E1,8.558582E1,7.8187225E1,4.896695E1,4.1427685E1,7.5561195E1,1.0024627E1,4.5240437E1,3.294679E1,1.4793354E1,3.4173595E1,1.1582728E1,2.9844955E1,5.032083E1,2.524036E1,1.5263016E1,2.997742E1,1.4920915E1,1.8025875E1,2.208948E1,1.2084117E1,1.3434036E1,1.641092E1],"tree_param":{"num_deleted":"0","num_feature":"53","num_nodes":"25","size_leaf_vector":"1"}},{"base_weights":[3.4992114E-2,-1.22928254E-1,4.270198E-1,3.7996623E-1,-4.9635637E-1,1.3824877E-1,9.72358E-1,6.898676E-1,-4.1717568E-1,-8.6511606E-1,-5.6154083E-2,5.545161E-1,-8.215278E-2,1.4021228E-1,1.9645527E-2,8.0394395E-2,2.0586489E-2,-1.0678151E-1,3.5934962E-2,-2.514685E-2,-8.896479E-2,-3.5524674E-2,3.8746916E-2,1.04003005E-1,1.5806822E-2],"categories":[],"categories_nodes":[],"categories_segments":[],"categories_sizes":[],"default_left":[0,0,0,0,0,0,0,0,0,0,0,0,0,0,0,0,0,0,0,0,0,0,0,0,0],"id":29,"left_children":[1,3,5,7,9,11,13,15,17,19,21,23,-1,-1,-1,-1,-1,-1,-1,-1,-1,-1,-1,-1,-1],"loss_changes":[1.5654256E1,3.407074E1,1.1296838E1,1.9420528E1,1.6829014E1,2.3533445E1,1.2958958E1,6.819027E0,1.7292141E1,6.4622574E0,9.770616E0,9.055762E0,0E0,0E0,0E0,0E0,0E0,0E0,0E0,0E0,0E0,0E0,0E0,0E0,0E0],"parents":[2147483647,0,0,1,1,2,2,3,3,4,4,5,5,6,6,7,7,8,8,9,9,10,10,11,11],"right_children":[2,4,6,8,10,12,14,16,18,20,22,24,-1,-1,-1,-1,-1,-1,-1,-1,-1,-1,-1,-1,-1],"split_conditions":[3E0,2.973E3,4.6E1,1E0,4E0,3.8E1,1.0231E4,2.9411766E-1,5E-1,4.285E3,6.4705884E-1,2E0,-8.215278E-2,1.4021228E-1,1.9645527E-2,8.0394395E-2,2.0586489E-2,-1.0678151E-1,3.5934962E-2,-2.514685E-2,-8.896479E-2,-3.5524674E-2,3.8746916E-2,1.04003005E-1,1.5806822E-2],"split_indices":[21,9,0,47,11,0,9,26,25,9,26,14,0,0,0,0,0,0,0,0,0,0,0,0,0],"split_type":[0,0,0,0,0,0,0,0,0,0,0,0,0,0,0,0,0,0,0,0,0,0,0,0,0],"sum_hessian":[2.510106E2,1.7942096E2,7.158965E1,7.644935E1,1.0297161E2,4.762465E1,2.3965002E1,5.5145317E1,2.1304033E1,5.550746E1,4.746415E1,3.52223E1,1.2402347E1,1.1357844E1,1.2607157E1,3.2688293E1,2.2457026E1,1.0239457E1,1.1064576E1,1.6054766E1,3.9452698E1,2.7824047E1,1.96401E1,1.1092727E1,2.4129576E1],"tree_param":{"num_deleted":"0","num_feature":"53","num_nodes":"25","size_leaf_vector":"1"}},{"base_weights":[5.7107795E-2,8.6551493E-1,-2.6224997E-2,3.8715936E-2,1.00870445E-1,-1.5657285E-1,3.8517871E-1,-3.766951E-1,1.6225366E-1,-3.313678E-2,6.3691264E-1,-1.3372802E-2,-8.171672E-2,5.9716217E-2,-2.831823E-2,9.2017226E-2,1.8293066E-2],"categories":[],"categories_nodes":[],"categories_segments":[],"categories_sizes":[],"default_left":[0,0,0,0,0,0,0,0,0,0,0,0,0,0,0,0,0],"id":30,"left_children":[1,3,5,-1,-1,7,9,11,13,-1,15,-1,-1,-1,-1,-1,-1],"loss_changes":[1.688236E1,2.748331E0,1.2278889E1,0E0,0E0,1.2254272E1,1.117948E1,1.3432502E1,2.0644619E1,0E0,8.143915E0,0E0,0E0,0E0,0E0,0E0,0E0],"parents":[2147483647,0,0,1,1,2,2,5,5,6,6,7,7,8,8,10,10],"right_children":[2,4,6,-1,-1,8,10,12,14,-1,16,-1,-1,-1,-1,-1,-1],"split_conditions":[2E0,1E0,2E0,3.8715936E-2,1.00870445E-1,1.6E1,5.4E1,1.4E1,1E0,-3.313678E-2,3.2E1,-1.3372802E-2,-8.171672E-2,5.9716217E-2,-2.831823E-2,9.2017226E-2,1.8293066E-2],"split_indices":[18,43,31,0,0,12,5,12,34,0,0,0,0,0,0,0,0],"split_type":[0,0,0,0,0,0,0,0,0,0,0,0,0,0,0,0,0],"sum_hessian":[2.4926656E2,2.2416733E1,2.2684982E2,1.1759478E1,1.0657255E1,1.7273912E2,5.41107E1,1.020801E2,7.065903E1,1.2964138E1,4.114656E1,7.663456E1,2.5445536E1,3.3254013E1,3.740501E1,1.8293562E1,2.2852999E1],"tree_param":{"num_deleted":"0","num_feature":"53","num_nodes":"17","size_leaf_vector":"1"}},{"base_weights":[4.9293566E-2,-1.4878532E-1,5.3647065E-1,-3.8187608E-1,3.903214E-1,7.38495E-1,-2.4188086E-2,5.1090468E-2,-5.182309E-1,1.075676E-1,1.3310897E-1,9.226414E-1,1.8945692E-2,-6.697691E-2,-7.5570587E-3,4.2695563E-2,-3.149185E-2,1.0361213E-1,5.7973254E-2],"categories":[],"categories_nodes":[],"categories_segments":[],"categories_sizes":[],"default_left":[0,0,0,0,0,0,0,0,0,0,0,0,0,0,0,0,0,0,0],"id":31,"left_children":[1,3,5,7,9,11,-1,-1,13,-1,15,17,-1,-1,-1,-1,-1,-1,-1],"loss_changes":[2.3948288E1,2.234443E1,1.2242432E1,1.7237898E1,1.2493993E1,5.215664E0,0E0,0E0,1.3691874E1,0E0,8.75521E0,2.2120018E0,0E0,0E0,0E0,0E0,0E0,0E0,0E0],"parents":[2147483647,0,0,1,1,2,2,3,3,4,4,5,5,8,8,10,10,11,11],"right_children":[2,4,6,8,10,12,-1,-1,14,-1,16,18,-1,-1,-1,-1,-1,-1,-1],"split_conditions":[1.6666666E0,1.1558243E0,4E0,2E0,1.2054722E0,1E0,-2.4188086E-2,5.1090468E-2,2.5E-1,1.075676E-1,1E0,1E0,1.8945692E-2,-6.697691E-2,-7.5570587E-3,4.2695563E-2,-3.149185E-2,1.0361213E-1,5.7973254E-2],"split_indices":[25,23,8,18,23,38,0,0,28,0,15,33,0,0,0,0,0,0,0],"split_type":[0,0,0,0,0,0,0,0,0,0,0,0,0,0,0,0,0,0,0],"sum_hessian":[2.4634293E2,1.7562929E2,7.071363E1,1.22818535E2,5.2810757E1,5.6960392E1,1.37532425E1,1.42869005E1,1.0853163E2,1.0691375E1,4.211938E1,4.1220173E1,1.5740217E1,6.3649353E1,4.488228E1,2.4102533E1,1.8016848E1,1.442242E1,2.6797754E1],"tree_param":{"num_deleted":"0","num_feature":"53","num_nodes":"19","size_leaf_vector":"1"}},{"base_weights":[5.2634936E-2,2.1464062E-1,-4.31463E-1,-6.898287E-2,2.8644952E-1,-9.541281E-2,-1.8508591E-1,-5.5032037E-2,3.6675268E-1,-6.0995406E-1,3.0578809E-2,1.4030626E-2,5.8089916E-2,-8.739404E-2,5.203632E-3],"categories":[],"categories_nodes":[],"categories_segments":[],"categories_sizes":[],"default_left":[0,0,0,0,0,0,0,0,0,0,0,0,0,0,0],"id":32,"left_children":[1,3,5,-1,7,-1,9,-1,11,13,-1,-1,-1,-1,-1],"loss_changes":[1.9182098E1,1.4066006E1,1.0770698E1,0E0,1.3433925E1,0E0,1.1337273E1,0E0,1.0472546E1,8.269402E0,0E0,0E0,0E0,0E0,0E0],"parents":[2147483647,0,0,1,1,2,2,4,4,6,6,8,8,9,9],"right_children":[2,4,6,-1,8,-1,10,-1,12,14,-1,-1,-1,-1,-1],"split_conditions":[1.097E3,2.02E2,5.5E1,-6.898287E-2,1E0,-9.541281E-2,1E0,-5.5032037E-2,4E0,5E0,3.0578809E-2,1.4030626E-2,5.8089916E-2,-8.739404E-2,5.203632E-3],"split_indices":[1,1,5,0,31,0,52,0,11,11,0,0,0,0,0],"split_type":[0,0,0,0,0,0,0,0,0,0,0,0,0,0,0],"sum_hessian":[2.4240575E2,1.8204135E2,6.0364388E1,1.0951892E1,1.7108946E2,1.4348736E1,4.601565E1,1.2710493E1,1.5837897E2,2.6033587E1,1.9982065E1,1.0114444E2,5.723453E1,1.524713E1,1.0786456E1],"tree_param":{"num_deleted":"0","num_feature":"53","num_nodes":"15","size_leaf_vector":"1"}},{"base_weights":[6.809356E-2,-1.2177149E-1,3.842475E-1,1.1983439E-1,-4.7362548E-1,6.71657E-1,-5.466282E-2,3.2150376E-1,-4.3347904E-1,-9.406233E-1,-5.123738E-2,9.175305E-1,4.3017438E-1,-4.5348334E-1,5.2598886E-2,4.3490216E-2,-5.176517E-2,2.3524467E-2,-8.564845E-2,-3.803289E-2,-9.6572876E-2,-3.564329E-2,3.627073E-2,5.511207E-2,9.8565854E-2,6.1871085E-2,3.96463E-3,1.2233681E-2,-7.584676E-2],"categories":[],"categories_nodes":[],"categories_segments":[],"categories_sizes":[],"default_left":[0,0,0,0,0,0,0,0,0,0,0,0,0,0,0,0,0,0,0,0,0,0,0,0,0,0,0,0,0],"id":33,"left_children":[1,3,5,7,9,11,13,15,17,19,21,23,25,27,-1,-1,-1,-1,-1,-1,-1,-1,-1,-1,-1,-1,-1,-1,-1],"loss_changes":[1.472164E1,1.3106007E1,1.1638454E1,1.0383837E1,1.2318656E1,2.9096012E0,1.0604505E1,1.363085E1,1.1168533E1,2.754366E0,6.5588484E0,1.0499077E0,3.6354198E0,6.961193E0,0E0,0E0,0E0,0E0,0E0,0E0,0E0,0E0,0E0,0E0,0E0,0E0,0E0,0E0,0E0],"parents":[2147483647,0,0,1,1,2,2,3,3,4,4,5,5,6,6,7,7,8,8,9,9,10,10,11,11,12,12,13,13],"right_children":[2,4,6,8,10,12,14,16,18,20,22,24,26,28,-1,-1,-1,-1,-1,-1,-1,-1,-1,-1,-1,-1,-1,-1,-1],"split_conditions":[1E0,1.5813E4,3.7E1,4E0,2.1509E4,3E0,2.2E1,3E0,4.5714286E-1,3.1E1,1E0,3E0,3.748E3,1E0,5.2598886E-2,4.3490216E-2,-5.176517E-2,2.3524467E-2,-8.564845E-2,-3.803289E-2,-9.6572876E-2,-3.564329E-2,3.627073E-2,5.511207E-2,9.8565854E-2,6.1871085E-2,3.96463E-3,1.2233681E-2,-7.584676E-2],"split_indices":[52,10,0,8,10,14,16,7,26,0,35,21,9,34,0,0,0,0,0,0,0,0,0,0,0,0,0,0,0],"split_type":[0,0,0,0,0,0,0,0,0,0,0,0,0,0,0,0,0,0,0,0,0,0,0,0,0,0,0,0,0],"sum_hessian":[2.4347252E2,1.5250253E2,9.0969986E1,9.080756E1,6.169497E1,5.465212E1,3.6317863E1,6.6858284E1,2.394928E1,2.8717554E1,3.2977417E1,2.5692692E1,2.8959429E1,2.3271893E1,1.3045971E1,5.529042E1,1.1567862E1,1.1195833E1,1.2753446E1,1.0332382E1,1.838517E1,1.8635845E1,1.4341573E1,1.5377856E1,1.0314836E1,1.5217498E1,1.374193E1,1.0465868E1,1.2806024E1],"tree_param":{"num_deleted":"0","num_feature":"53","num_nodes":"29","size_leaf_vector":"1"}},{"base_weights":[1.0144213E-2,4.8938137E-1,-1.7796859E-1,-1.8456299E-4,9.2183214E-1,2.4176518E-2,-5.1177114E-1,-3.925487E-2,5.9024774E-2,1.1341836E0,3.1934544E-2,-1.7887285E-1,5.277504E-1,-2.0655175E-1,-1.0102355E-1,7.061347E-2,1.0830604E-1,-3.249505E-2,5.388123E-2,7.5304694E-2,1.8771145E-2,1.420026E-2,-8.488149E-2],"categories":[],"categories_nodes":[],"categories_segments":[],"categories_sizes":[],"default_left":[0,0,0,0,0,0,0,0,0,0,0,0,0,0,0,0,0,0,0,0,0,0,0],"id":34,"left_children":[1,3,5,7,9,11,13,-1,-1,15,-1,17,19,21,-1,-1,-1,-1,-1,-1,-1,-1,-1],"loss_changes":[2.1323715E1,1.4114808E1,1.1476599E1,1.1354119E1,3.5763187E0,1.1011958E1,1.3728933E1,0E0,0E0,1.1348724E-1,0E0,1.4050335E1,3.375248E0,1.4575193E1,0E0,0E0,0E0,0E0,0E0,0E0,0E0,0E0,0E0],"parents":[2147483647,0,0,1,1,2,2,3,3,4,4,5,5,6,6,9,9,11,11,12,12,13,13],"right_children":[2,4,6,8,10,12,14,-1,-1,16,-1,18,20,22,-1,-1,-1,-1,-1,-1,-1,-1,-1],"split_conditions":[2E0,9E0,9.21E2,7E0,1E0,2E0,2.0833333E-1,-3.925487E-2,5.9024774E-2,3E0,3.1934544E-2,2.2E1,1E0,4E1,-1.0102355E-1,7.061347E-2,1.0830604E-1,-3.249505E-2,5.388123E-2,7.5304694E-2,1.8771145E-2,1.420026E-2,-8.488149E-2],"split_indices":[4,2,1,20,36,31,28,0,0,22,0,2,21,0,0,0,0,0,0,0,0,0,0],"split_type":[0,0,0,0,0,0,0,0,0,0,0,0,0,0,0,0,0,0,0,0,0,0,0],"sum_hessian":[2.3456813E2,6.566869E1,1.6889943E2,3.126922E1,3.4399475E1,1.05772804E2,6.3126633E1,1.8985815E1,1.2283403E1,2.381166E1,1.0587814E1,7.583832E1,2.993448E1,4.5132626E1,1.7994007E1,1.1654692E1,1.2156969E1,6.066547E1,1.5172852E1,1.2189462E1,1.774502E1,3.1454006E1,1.3678619E1],"tree_param":{"num_deleted":"0","num_feature":"53","num_nodes":"23","size_leaf_vector":"1"}},{"base_weights":[6.038205E-2,-1.4311112E-1,3.4537885E-1,3.8189828E-1,-2.9539987E-1,-7.0053674E-2,4.853024E-1,1.4812367E-3,6.512821E-2,-5.2955514E-1,1.3192971E-1,6.7014307E-1,-1.4240263E-1,3.6792608E-3,-7.113632E-2,-3.0438555E-2,6.3343324E-2,7.292005E-2,6.5242755E-3,-3.901406E-2,1.7861582E-2],"categories":[],"categories_nodes":[],"categories_segments":[],"categories_sizes":[],"default_left":[0,0,0,0,0,0,0,0,0,0,0,0,0,0,0,0,0,0,0,0,0],"id":35,"left_children":[1,3,5,7,9,-1,11,-1,-1,13,15,17,19,-1,-1,-1,-1,-1,-1,-1,-1],"loss_changes":[1.4225963E1,1.1571827E1,1.7497494E1,4.8422284E0,1.1242741E1,0E0,1.0776741E1,0E0,0E0,1.3904581E1,1.316078E1,8.984028E0,2.6915104E0,0E0,0E0,0E0,0E0,0E0,0E0,0E0,0E0],"parents":[2147483647,0,0,1,1,2,2,3,3,4,4,6,6,9,9,10,10,11,11,12,12],"right_children":[2,4,6,8,10,-1,12,-1,-1,14,16,18,20,-1,-1,-1,-1,-1,-1,-1,-1],"split_conditions":[1E0,2.45E3,1E0,2.5E-1,4E0,-7.0053674E-2,4E0,1.4812367E-3,6.512821E-2,2E0,6.646E3,1E0,2.0833333E-1,3.6792608E-3,-7.113632E-2,-3.0438555E-2,6.3343324E-2,7.292005E-2,6.5242755E-3,-3.901406E-2,1.7861582E-2],"split_indices":[51,9,11,25,14,0,8,0,0,14,9,38,28,0,0,0,0,0,0,0,0],"split_type":[0,0,0,0,0,0,0,0,0,0,0,0,0,0,0,0,0,0,0,0,0],"sum_hessian":[2.434445E2,1.4232184E2,1.01122665E2,3.1661692E1,1.1066014E2,1.0062539E1,9.106013E1,1.7298164E1,1.4363528E1,7.133365E1,3.9326492E1,7.029323E1,2.0766895E1,2.6543955E1,4.4789696E1,2.2239182E1,1.7087309E1,5.1182827E1,1.9110403E1,1.0640097E1,1.0126799E1],"tree_param":{"num_deleted":"0","num_feature":"53","num_nodes":"21","size_leaf_vector":"1"}},{"base_weights":[1.6195121E-1,8.0789566E-2,8.606658E-1,-6.802363E-2,4.7597817E-1,4.399245E-2,9.875891E-2,3.6352023E-1,-2.236486E-1,-1.5470366E-2,6.346948E-1,5.170833E-2,-3.6464646E-2,-1.0128566E-2,-8.550098E-2,6.8115465E-2,-4.4182935E-3],"categories":[],"categories_nodes":[],"categories_segments":[],"categories_sizes":[],"default_left":[0,0,0,0,0,0,0,0,0,0,0,0,0,0,0,0,0],"id":36,"left_children":[1,3,5,7,9,-1,-1,11,13,-1,15,-1,-1,-1,-1,-1,-1],"loss_changes":[1.3815189E1,1.2997774E1,2.162344E0,1.0895999E1,6.485729E0,0E0,0E0,9.444187E0,9.627078E0,0E0,6.5212708E0,0E0,0E0,0E0,0E0,0E0,0E0],"parents":[2147483647,0,0,1,1,2,2,3,3,4,4,7,7,8,8,10,10],"right_children":[2,4,6,8,10,-1,-1,12,14,-1,16,-1,-1,-1,-1,-1,-1],"split_conditions":[7.3333335E0,5E0,1E0,1E0,7.824E3,4.399245E-2,9.875891E-2,3.688E3,5E0,-1.5470366E-2,8E0,5.170833E-2,-3.6464646E-2,-1.0128566E-2,-8.550098E-2,6.8115465E-2,-4.4182935E-3],"split_indices":[25,11,48,22,10,0,0,9,17,0,11,0,0,0,0,0,0],"split_type":[0,0,0,0,0,0,0,0,0,0,0,0,0,0,0,0,0],"sum_hessian":[2.438423E2,2.1946516E2,2.4377123E1,1.6003127E2,5.9433903E1,1.3706992E1,1.0670132E1,4.2061096E1,1.1797018E2,1.1434085E1,4.7999817E1,3.1848959E1,1.0212136E1,1.0600653E2,1.1963639E1,3.7372154E1,1.0627662E1],"tree_param":{"num_deleted":"0","num_feature":"53","num_nodes":"17","size_leaf_vector":"1"}},{"base_weights":[8.2363375E-2,-5.8569515E-1,1.6207813E-1,6.318468E-3,-1.1531919E-1,2.171954E-2,5.6551766E-1,5.2219456E-1,-1.803273E-1,7.519093E-1,3.1038653E-4,1.6627751E-2,1.0238239E-1,-5.511451E-4,-6.792915E-2,2.6321255E-2,8.078906E-2],"categories":[],"categories_nodes":[],"categories_segments":[],"categories_sizes":[],"default_left":[0,0,0,0,0,0,0,0,0,0,0,0,0,0,0,0,0],"id":37,"left_children":[1,3,5,-1,-1,7,9,11,13,15,-1,-1,-1,-1,-1,-1,-1],"loss_changes":[1.2900724E1,1.4045013E1,1.2197159E1,0E0,0E0,1.6374672E1,5.8200474E0,1.0496307E1,1.2906328E1,3.8149796E0,0E0,0E0,0E0,0E0,0E0,0E0,0E0],"parents":[2147483647,0,0,1,1,2,2,5,5,6,6,7,7,8,8,9,9],"right_children":[2,4,6,-1,-1,8,10,12,14,16,-1,-1,-1,-1,-1,-1,-1],"split_conditions":[1E0,6.18E2,1E0,6.318468E-3,-1.1531919E-1,4.38E2,3E0,3.67E2,1.6E1,6.18E2,3.1038653E-4,1.6627751E-2,1.0238239E-1,-5.511451E-4,-6.792915E-2,2.6321255E-2,8.078906E-2],"split_indices":[11,1,43,0,0,1,27,1,16,1,0,0,0,0,0,0,0],"split_type":[0,0,0,0,0,0,0,0,0,0,0,0,0,0,0,0,0],"sum_hessian":[2.394658E2,2.4851086E1,2.1461472E2,1.4200648E1,1.0650438E1,1.6000279E2,5.4611923E1,4.5561443E1,1.1444135E2,4.0751766E1,1.3860158E1,3.2423058E1,1.3138388E1,9.093808E1,2.3503273E1,1.4923557E1,2.5828207E1],"tree_param":{"num_deleted":"0","num_feature":"53","num_nodes":"17","size_leaf_vector":"1"}},{"base_weights":[1.2830861E-1,2.9290658E-1,-1.9450496E-1,1.1049685E-1,6.239484E-1,-4.0518633E-1,3.722411E-1,3.8986304E-1,-3.2076153E-1,8.318756E-1,7.237261E-3,-5.994027E-1,4.1877463E-2,7.027742E-2,-9.264372E-3,1.8684832E-2,8.304281E-2,-8.6468965E-2,1.41194975E-2,8.470077E-2,3.2687616E-2,-1.0023934E-3,-7.583551E-2],"categories":[],"categories_nodes":[],"categories_segments":[],"categories_sizes":[],"default_left":[0,0,0,0,0,0,0,0,0,0,0,0,0,0,0,0,0,0,0,0,0,0,0],"id":38,"left_children":[1,3,5,7,9,11,13,15,17,19,-1,21,-1,-1,-1,-1,-1,-1,-1,-1,-1,-1,-1],"loss_changes":[1.33599E1,9.968004E0,1.0317766E1,1.31826315E1,6.485323E0,1.1401972E1,5.59389E0,6.4462986E0,1.5656979E1,3.2005005E0,0E0,9.79998E0,0E0,0E0,0E0,0E0,0E0,0E0,0E0,0E0,0E0,0E0,0E0],"parents":[2147483647,0,0,1,1,2,2,3,3,4,4,5,5,6,6,7,7,8,8,9,9,11,11],"right_children":[2,4,6,8,10,12,14,16,18,20,-1,22,-1,-1,-1,-1,-1,-1,-1,-1,-1,-1,-1],"split_conditions":[3E0,1E0,3E0,3.5E1,1E0,2.2E1,3E0,1.315E3,8E0,8.74E2,7.237261E-3,2.9411766E-1,4.1877463E-2,7.027742E-2,-9.264372E-3,1.8684832E-2,8.304281E-2,-8.6468965E-2,1.41194975E-2,8.470077E-2,3.2687616E-2,-1.0023934E-3,-7.583551E-2],"split_indices":[27,52,21,0,38,2,3,1,2,1,0,30,0,0,0,0,0,0,0,0,0,0,0],"split_type":[0,0,0,0,0,0,0,0,0,0,0,0,0,0,0,0,0,0,0,0,0,0,0],"sum_hessian":[2.4936348E2,1.6521524E2,8.4148224E1,1.0738052E2,5.783473E1,6.155203E1,2.2596197E1,6.522452E1,4.2156002E1,4.127479E1,1.6559937E1,5.1043243E1,1.0508786E1,1.0962893E1,1.1633305E1,5.268867E1,1.2535845E1,1.6536657E1,2.5619347E1,2.7510757E1,1.3764032E1,1.8408216E1,3.263503E1],"tree_param":{"num_deleted":"0","num_feature":"53","num_nodes":"23","size_leaf_vector":"1"}},{"base_weights":[1.00076064E-1,-1.339282E-1,4.7593024E-1,4.6459764E-1,-3.3330902E-1,7.146679E-1,8.574215E-2,-1.38323605E-2,9.399706E-2,4.8126316E-1,-5.3909695E-1,9.7141546E-1,1.7860351E-2,4.8451084E-1,-5.6258015E-2,-3.401124E-2,3.1606957E-2,1.5479485E-2,5.993359E-2,-8.0930784E-2,-2.2778682E-2,9.2159174E-2,4.6806846E-2,7.456884E-2,-9.298767E-4],"categories":[],"categories_nodes":[],"categories_segments":[],"categories_sizes":[],"default_left":[0,0,0,0,0,0,0,0,0,0,0,0,0,0,0,0,0,0,0,0,0,0,0,0,0],"id":39,"left_children":[1,3,5,7,9,11,13,15,-1,17,19,21,-1,23,-1,-1,-1,-1,-1,-1,-1,-1,-1,-1,-1],"loss_changes":[1.9677898E1,1.6649467E1,7.9302387E0,1.1325792E1,1.77373E1,6.5757885E0,1.0659612E1,3.5614324E0,0E0,1.4201727E0,9.471279E0,1.4260521E0,0E0,4.758692E0,0E0,0E0,0E0,0E0,0E0,0E0,0E0,0E0,0E0,0E0,0E0],"parents":[2147483647,0,0,1,1,2,2,3,3,4,4,5,5,6,6,7,7,9,9,10,10,11,11,13,13],"right_children":[2,4,6,8,10,12,14,16,-1,18,20,22,-1,24,-1,-1,-1,-1,-1,-1,-1,-1,-1,-1,-1],"split_conditions":[5E-1,3.81E2,3E0,1.0740863E0,2.25E0,9.21E2,9.8190725E-1,2.0833333E-1,9.399706E-2,1E0,5.185185E-1,7.586207E-1,1.7860351E-2,1.5625E-1,-5.6258015E-2,-3.401124E-2,3.1606957E-2,1.5479485E-2,5.993359E-2,-8.0930784E-2,-2.2778682E-2,9.2159174E-2,4.6806846E-2,7.456884E-2,-9.298767E-4],"split_indices":[25,1,17,23,27,1,23,28,0,51,30,30,0,28,0,0,0,0,0,0,0,0,0,0,0],"split_type":[0,0,0,0,0,0,0,0,0,0,0,0,0,0,0,0,0,0,0,0,0,0,0,0,0],"sum_hessian":[2.220111E2,1.3722156E2,8.4789536E1,3.395652E1,1.0326504E2,5.2087845E1,3.270169E1,2.0460838E1,1.3495681E1,2.0556684E1,8.270836E1,3.3738785E1,1.834906E1,2.1773842E1,1.092785E1,1.0191666E1,1.0269174E1,1.0183218E1,1.0373466E1,2.9755886E1,5.295247E1,2.342077E1,1.0318014E1,1.1334333E1,1.0439509E1],"tree_param":{"num_deleted":"0","num_feature":"53","num_nodes":"25","size_leaf_vector":"1"}},{"base_weights":[5.895859E-2,-7.933855E-2,4.838837E-1,1.9362815E-1,-4.1496462E-1,7.021682E-1,-1.5869884E-2,3.3220483E-3,6.448402E-1,-5.793632E-1,3.9683886E-2,8.8793445E-1,1.8864285E-2,4.5647386E-2,-2.0553103E-2,8.9076765E-2,-8.392841E-3,-2.8639719E-2,-9.765598E-2,9.7285144E-2,4.9362957E-2],"categories":[],"categories_nodes":[],"categories_segments":[],"categories_sizes":[],"default_left":[0,0,0,0,0,0,0,0,0,0,0,0,0,0,0,0,0,0,0,0,0],"id":40,"left_children":[1,3,5,7,9,11,-1,13,15,17,-1,19,-1,-1,-1,-1,-1,-1,-1,-1,-1],"loss_changes":[1.3679622E1,1.6203548E1,8.572948E0,8.390304E0,1.1961137E1,3.6131573E0,0E0,9.847682E0,9.554202E0,9.056335E0,0E0,1.8998489E0,0E0,0E0,0E0,0E0,0E0,0E0,0E0,0E0,0E0],"parents":[2147483647,0,0,1,1,2,2,3,3,4,4,5,5,7,7,8,8,9,9,11,11],"right_children":[2,4,6,8,10,12,-1,14,16,18,-1,20,-1,-1,-1,-1,-1,-1,-1,-1,-1],"split_conditions":[1E0,1E0,9.89E2,5E0,9.0625E-1,1E0,-1.5869884E-2,1E0,3.8E1,6.8421054E-1,3.9683886E-2,1.3E1,1.8864285E-2,4.5647386E-2,-2.0553103E-2,8.9076765E-2,-8.392841E-3,-2.8639719E-2,-9.765598E-2,9.7285144E-2,4.9362957E-2],"split_indices":[32,15,1,11,30,50,0,22,0,30,0,12,0,0,0,0,0,0,0,0,0],"split_type":[0,0,0,0,0,0,0,0,0,0,0,0,0,0,0,0,0,0,0,0,0],"sum_hessian":[2.3112823E2,1.7498914E2,5.61391E1,9.6736145E1,7.8253E1,4.2415157E1,1.372394E1,6.874793E1,2.7988209E1,6.6427124E1,1.1825876E1,2.9828896E1,1.2586262E1,2.1253311E1,4.749462E1,1.7383234E1,1.0604974E1,4.918701E1,1.7240114E1,1.3277589E1,1.6551308E1],"tree_param":{"num_deleted":"0","num_feature":"53","num_nodes":"21","size_leaf_vector":"1"}},{"base_weights":[-8.611806E-3,-2.8362596E-1,2.181753E-1,-5.778506E-1,1.1933999E-1,9.633699E-4,6.2483156E-1,7.661812E-3,-8.6154026E-1,5.5394527E-2,-2.2446646E-1,5.4189865E-2,-1.7313187E-1,1.0976951E-2,9.680524E-1,-9.3705155E-2,-2.5865825E-2,-8.2358025E-2,3.252001E-2,3.0915422E-2,-4.8517212E-2,5.697203E-2,1.0220349E-1],"categories":[],"categories_nodes":[],"categories_segments":[],"categories_sizes":[],"default_left":[0,0,0,0,0,0,0,0,0,0,0,0,0,0,0,0,0,0,0,0,0,0,0],"id":41,"left_children":[1,3,5,7,9,11,13,-1,15,-1,17,-1,19,-1,21,-1,-1,-1,-1,-1,-1,-1,-1],"loss_changes":[1.4074515E1,1.2159231E1,1.0925616E1,1.1329533E1,8.490342E0,9.447314E0,7.1374607E0,0E0,5.9313107E0,0E0,1.3735391E1,0E0,1.511142E1,0E0,1.0408955E0,0E0,0E0,0E0,0E0,0E0,0E0,0E0,0E0],"parents":[2147483647,0,0,1,1,2,2,3,3,4,4,5,5,6,6,8,8,10,10,12,12,14,14],"right_children":[2,4,6,8,10,12,14,-1,16,-1,18,-1,20,-1,22,-1,-1,-1,-1,-1,-1,-1,-1],"split_conditions":[8E0,1.019802E0,1E0,1E0,8E0,2.25E0,1.7391305E-1,7.661812E-3,5E0,5.5394527E-2,1E1,5.4189865E-2,8.083402E-1,1.0976951E-2,2E0,-9.3705155E-2,-2.5865825E-2,-8.2358025E-2,3.252001E-2,3.0915422E-2,-4.8517212E-2,5.697203E-2,1.0220349E-1],"split_indices":[2,23,48,22,16,27,24,0,2,0,19,0,23,0,29,0,0,0,0,0,0,0,0],"split_type":[0,0,0,0,0,0,0,0,0,0,0,0,0,0,0,0,0,0,0,0,0,0,0],"sum_hessian":[2.236707E2,1.0097382E2,1.2269688E2,5.811055E1,4.2863274E1,8.063093E1,4.2065945E1,1.7470383E1,4.0640167E1,1.6066147E1,2.6797127E1,1.6313313E1,6.431762E1,1.78653E1,2.4200647E1,2.6312143E1,1.4328026E1,1.1627001E1,1.5170126E1,2.7776827E1,3.654079E1,1.3764448E1,1.0436199E1],"tree_param":{"num_deleted":"0","num_feature":"53","num_nodes":"23","size_leaf_vector":"1"}},{"base_weights":[1.09389745E-1,5.018422E-1,-8.504057E-2,2.8939447E-1,9.9106425E-1,4.2741787E-2,-7.308884E-1,2.2943476E-3,7.1641535E-1,9.736583E-2,6.0883556E-2,7.866313E-2,-4.3223444E-2,-4.459702E-3,-1.1001571E-1,3.369655E-2,-6.9036014E-2,7.094338E-2,4.2103235E-2,-2.4561523E-2,2.8011687E-2],"categories":[],"categories_nodes":[],"categories_segments":[],"categories_sizes":[],"default_left":[0,0,0,0,0,0,0,0,0,0,0,0,0,0,0,0,0,0,0,0,0],"id":42,"left_children":[1,3,5,7,9,11,13,15,17,-1,-1,-1,19,-1,-1,-1,-1,-1,-1,-1,-1],"loss_changes":[1.7752361E1,7.7197933E0,1.2910258E1,6.7563667E0,2.2818375E-1,1.0329446E1,1.0493582E1,1.1948555E1,2.182827E-1,0E0,0E0,0E0,1.1907949E1,0E0,0E0,0E0,0E0,0E0,0E0,0E0,0E0],"parents":[2147483647,0,0,1,1,2,2,3,3,4,4,5,5,6,6,7,7,8,8,12,12],"right_children":[2,4,6,8,10,12,14,16,18,-1,-1,-1,20,-1,-1,-1,-1,-1,-1,-1,-1],"split_conditions":[2.5E0,2.5E-1,1E0,1.1497698E0,5.1E1,1E0,3.1E1,3.4E1,4.969E3,9.736583E-2,6.0883556E-2,7.866313E-2,1.0552559E0,-4.459702E-3,-1.1001571E-1,3.369655E-2,-6.9036014E-2,7.094338E-2,4.2103235E-2,-2.4561523E-2,2.8011687E-2],"split_indices":[27,25,47,23,5,17,0,0,9,0,0,0,23,0,0,0,0,0,0,0,0],"split_type":[0,0,0,0,0,0,0,0,0,0,0,0,0,0,0,0,0,0,0,0,0],"sum_hessian":[2.3109178E2,7.603535E1,1.5505643E2,5.4123447E1,2.1911901E1,1.3022498E2,2.4831465E1,3.296522E1,2.1158226E1,1.0376231E1,1.1535671E1,1.0346993E1,1.19877975E2,1.222845E1,1.2603015E1,2.2559036E1,1.0406186E1,1.0542366E1,1.061586E1,7.212627E1,4.775171E1],"tree_param":{"num_deleted":"0","num_feature":"53","num_nodes":"21","size_leaf_vector":"1"}},{"base_weights":[5.494226E-2,-6.548897E-2,1.1850802E-1,-1.5391422E-3,5.273746E-1,1.2466745E-1,-7.680375E-2,-1.4456253E-2,9.126403E-1,4.2925786E-2,-4.5997864E-3,1.0493617E-1,3.3109855E-2],"categories":[],"categories_nodes":[],"categories_segments":[],"categories_sizes":[],"default_left":[0,0,0,0,0,0,0,0,0,0,0,0,0],"id":43,"left_children":[1,-1,3,5,7,9,-1,-1,11,-1,-1,-1,-1],"loss_changes":[1.2210954E1,0E0,1.0287161E1,1.9261192E1,1.3040666E1,1.0360182E1,0E0,0E0,5.1833763E0,0E0,0E0,0E0,0E0],"parents":[2147483647,0,0,2,2,3,3,4,4,5,5,8,8],"right_children":[2,-1,4,6,8,10,-1,-1,12,-1,-1,-1,-1],"split_conditions":[1E0,-6.548897E-2,8.636364E-1,7.8125E-1,1.019802E0,2.5E0,-7.680375E-2,-1.4456253E-2,1E0,4.2925786E-2,-4.5997864E-3,1.0493617E-1,3.3109855E-2],"split_indices":[31,0,30,30,23,27,0,0,34,0,0,0,0],"split_type":[0,0,0,0,0,0,0,0,0,0,0,0,0],"sum_hessian":[2.2331003E2,1.47407E1,2.0856932E2,1.6200063E2,4.6568703E1,1.4341751E2,1.8583109E1,1.6681509E1,2.9887196E1,4.428668E1,9.913084E1,1.6636137E1,1.3251059E1],"tree_param":{"num_deleted":"0","num_feature":"53","num_nodes":"13","size_leaf_vector":"1"}},{"base_weights":[9.306514E-2,3.4393767E-1,-1.9150388E-1,7.968956E-1,9.9287026E-2,-4.1230866E-1,3.4017003E-1,5.2192575E-1,1.0181362E-1,7.0245355E-2,-1.18916176E-1,-6.73827E-1,3.6079902E-2,6.264458E-2,-8.670036E-3,-6.406892E-3,8.1580974E-2,2.4882518E-2,-1.0256021E-1,-2.5500467E-2,-8.359089E-2],"categories":[],"categories_nodes":[],"categories_segments":[],"categories_sizes":[],"default_left":[0,0,0,0,0,0,0,0,0,0,0,0,0,0,0,0,0,0,0,0,0],"id":44,"left_children":[1,3,5,7,9,11,13,15,-1,-1,17,19,-1,-1,-1,-1,-1,-1,-1,-1,-1],"loss_changes":[1.6016752E1,1.3119542E1,1.2505299E1,4.3780804E0,1.3000694E1,1.6942818E1,5.9664564E0,7.749215E0,0E0,0E0,2.9629135E1,6.8429585E0,0E0,0E0,0E0,0E0,0E0,0E0,0E0,0E0,0E0],"parents":[2147483647,0,0,1,1,2,2,3,3,4,4,5,5,6,6,7,7,10,10,11,11],"right_children":[2,4,6,8,10,12,14,16,-1,-1,18,20,-1,-1,-1,-1,-1,-1,-1,-1,-1],"split_conditions":[1E0,3E0,1E0,4.0625E-1,2.25E0,8.947368E-1,5E0,8E0,1.0181362E-1,7.0245355E-2,1E1,0E0,3.6079902E-2,6.264458E-2,-8.670036E-3,-6.406892E-3,8.1580974E-2,2.4882518E-2,-1.0256021E-1,-2.5500467E-2,-8.359089E-2],"split_indices":[15,18,32,24,27,30,19,2,0,0,16,29,0,0,0,0,0,0,0,0,0],"split_type":[0,0,0,0,0,0,0,0,0,0,0,0,0,0,0,0,0,0,0,0,0],"sum_hessian":[2.2243132E2,1.1810383E2,1.043275E2,4.062727E1,7.7476555E1,7.387262E1,3.0454878E1,2.6322973E1,1.43042965E1,1.6748611E1,6.0727947E1,5.6653923E1,1.7218699E1,1.5307627E1,1.5147251E1,1.1907118E1,1.4415855E1,4.473507E1,1.5992876E1,2.8301458E1,2.8352467E1],"tree_param":{"num_deleted":"0","num_feature":"53","num_nodes":"21","size_leaf_vector":"1"}},{"base_weights":[6.066493E-2,1.2733875E-1,-5.909844E-2,-4.0585365E-2,3.873108E-1,-6.55882E-2,5.0514568E-2,5.595106E-1,-3.740178E-2,3.0121872E-2,-1.5656965E-2,7.321999E-2,2.2021282E-2,-3.067842E-2,3.0398972E-2],"categories":[],"categories_nodes":[],"categories_segments":[],"categories_sizes":[],"default_left":[0,0,0,0,0,0,0,0,0,0,0,0,0,0,0],"id":45,"left_children":[1,3,-1,5,7,-1,9,11,13,-1,-1,-1,-1,-1,-1],"loss_changes":[1.1532947E1,8.922424E0,0E0,8.633553E0,5.8835764E0,0E0,8.585766E0,5.255169E0,3.4125507E0,0E0,0E0,0E0,0E0,0E0,0E0],"parents":[2147483647,0,0,1,1,3,3,4,4,6,6,7,7,8,8],"right_children":[2,4,-1,6,8,-1,10,12,14,-1,-1,-1,-1,-1,-1],"split_conditions":[3.5E0,1E0,-5.909844E-2,2E0,1E0,-6.55882E-2,5.9E1,1.0675E4,9.798229E-1,3.0121872E-2,-1.5656965E-2,7.321999E-2,2.2021282E-2,-3.067842E-2,3.0398972E-2],"split_indices":[27,51,0,2,38,0,5,10,23,0,0,0,0,0,0],"split_type":[0,0,0,0,0,0,0,0,0,0,0,0,0,0,0],"sum_hessian":[2.1958562E2,2.0302214E2,1.6563482E1,1.2386059E2,7.916155E1,1.249596E1,1.11364624E2,5.609887E1,2.3062687E1,4.7987766E1,6.3376858E1,2.5422094E1,3.0676775E1,1.268806E1,1.0374626E1],"tree_param":{"num_deleted":"0","num_feature":"53","num_nodes":"15","size_leaf_vector":"1"}},{"base_weights":[5.837006E-2,1.518486E-1,-6.3544774E-1,7.235563E-2,7.172366E-2,-1.0059845E-1,-4.247293E-3,-4.459598E-2,7.725003E-1,2.2297924E-2,-2.5173437E-2,1.5026194E-2,9.5400564E-2],"categories":[],"categories_nodes":[],"categories_segments":[],"categories_sizes":[],"default_left":[0,0,0,0,0,0,0,0,0,0,0,0,0],"id":46,"left_children":[1,3,5,-1,7,-1,-1,9,11,-1,-1,-1,-1],"loss_changes":[1.4706687E1,1.1537594E1,9.147565E0,0E0,1.475696E1,0E0,0E0,1.2902038E1,5.6488714E0,0E0,0E0,0E0,0E0],"parents":[2147483647,0,0,1,1,2,2,4,4,7,7,8,8],"right_children":[2,4,6,-1,8,-1,-1,10,12,-1,-1,-1,-1],"split_conditions":[1.0673E4,2E0,1.1558243E0,7.235563E-2,4.6E1,-1.0059845E-1,-4.247293E-3,3.485E3,6E0,2.2297924E-2,-2.5173437E-2,1.5026194E-2,9.5400564E-2],"split_indices":[9,18,23,0,0,0,0,9,19,0,0,0,0],"split_type":[0,0,0,0,0,0,0,0,0,0,0,0,0],"sum_hessian":[2.2426755E2,1.9832785E2,2.5939703E1,1.8714775E1,1.7961307E2,1.240689E1,1.3532813E1,1.548469E2,2.4766172E1,7.0111176E1,8.4735725E1,1.0366324E1,1.4399849E1],"tree_param":{"num_deleted":"0","num_feature":"53","num_nodes":"13","size_leaf_vector":"1"}},{"base_weights":[9.579811E-2,1.7766656E-2,5.689046E-1,5.653786E-2,-4.1262537E-2,6.643261E-2,1.1756002E-2,-7.4361235E-2,4.20208E-2,-1.0464114E-2,2.340629E-2],"categories":[],"categories_nodes":[],"categories_segments":[],"categories_sizes":[],"default_left":[0,0,0,0,0,0,0,0,0,0,0],"id":47,"left_children":[1,3,5,-1,7,-1,-1,-1,9,-1,-1],"loss_changes":[8.605999E0,7.97426E0,3.2252512E0,0E0,1.3378342E1,0E0,0E0,0E0,7.013745E0,0E0,0E0],"parents":[2147483647,0,0,1,1,2,2,4,4,8,8],"right_children":[2,4,6,-1,8,-1,-1,-1,10,-1,-1],"split_conditions":[4.6666665E0,5.8894217E-1,3E0,5.653786E-2,6.741496E-1,6.643261E-2,1.1756002E-2,-7.4361235E-2,1E0,-1.0464114E-2,2.340629E-2],"split_indices":[25,23,27,0,23,0,0,0,35,0,0],"split_type":[0,0,0,0,0,0,0,0,0,0,0],"sum_hessian":[2.3239012E2,2.0037842E2,3.2011707E1,1.53970995E1,1.8498131E2,1.9987194E1,1.2024514E1,1.5442778E1,1.6953854E2,1.00110435E2,6.94281E1],"tree_param":{"num_deleted":"0","num_feature":"53","num_nodes":"11","size_leaf_vector":"1"}},{"base_weights":[2.3871409E-2,1.2262168E-1,-4.5114723E-1,6.54839E-2,4.529531E-2,-7.6911226E-2,7.942758E-3,-1.0909834E-1,4.0000018E-1,3.1798583E-2,-2.1264087E-2,-1.4619996E-2,5.867463E-2],"categories":[],"categories_nodes":[],"categories_segments":[],"categories_sizes":[],"default_left":[0,0,0,0,0,0,0,0,0,0,0,0,0],"id":48,"left_children":[1,3,5,-1,7,-1,-1,9,11,-1,-1,-1,-1],"loss_changes":[1.0104392E1,9.223307E0,9.884121E0,0E0,8.851106E0,0E0,0E0,8.422048E0,8.956259E0,0E0,0E0,0E0,0E0],"parents":[2147483647,0,0,1,1,2,2,4,4,7,7,8,8],"right_children":[2,4,6,-1,8,-1,-1,10,12,-1,-1,-1,-1],"split_conditions":[1E0,2.5E1,1E0,6.54839E-2,5E0,-7.6911226E-2,7.942758E-3,1E-1,4.2857143E-1,3.1798583E-2,-2.1264087E-2,-1.4619996E-2,5.867463E-2],"split_indices":[47,0,51,0,11,0,0,26,30,0,0,0,0],"split_type":[0,0,0,0,0,0,0,0,0,0,0,0,0],"sum_hessian":[2.1322838E2,1.7714423E2,3.6084152E1,1.7318903E1,1.5982533E2,1.8809713E1,1.7274439E1,1.11837746E2,4.7987583E1,2.5504234E1,8.633351E1,1.6989622E1,3.0997963E1],"tree_param":{"num_deleted":"0","num_feature":"53","num_nodes":"13","size_leaf_vector":"1"}},{"base_weights":[7.5993603E-3,1.9736187E-1,-3.760606E-1,3.083206E-1,-4.890358E-2,-9.312146E-2,-1.6147543E-1,4.1201687E-1,-4.7757294E-2,-4.6089786E-1,3.386119E-2,4.2323027E-2,-3.8652748E-2,5.0257975E-3,-9.042558E-2],"categories":[],"categories_nodes":[],"categories_segments":[],"categories_sizes":[],"default_left":[0,0,0,0,0,0,0,0,0,0,0,0,0,0,0],"id":49,"left_children":[1,3,5,7,-1,-1,9,11,-1,13,-1,-1,-1,-1,-1],"loss_changes":[1.6367874E1,1.3381441E1,1.18590355E1,1.2443716E1,0E0,0E0,1.0318108E1,1.092593E1,0E0,1.3114234E1,0E0,0E0,0E0,0E0,0E0],"parents":[2147483647,0,0,1,1,2,2,3,3,6,6,7,7,9,9],"right_children":[2,4,6,8,-1,-1,10,12,-1,14,-1,-1,-1,-1,-1],"split_conditions":[3E0,2.3016E4,9.732E3,1.0673E4,-4.890358E-2,-9.312146E-2,4E0,8E-1,-4.7757294E-2,3.452E3,3.386119E-2,4.2323027E-2,-3.8652748E-2,5.0257975E-3,-9.042558E-2],"split_indices":[27,10,10,9,0,0,11,26,0,9,0,0,0,0,0],"split_type":[0,0,0,0,0,0,0,0,0,0,0,0,0,0,0],"sum_hessian":[2.2280078E2,1.4939427E2,7.34065E1,1.315492E2,1.784508E1,1.5314742E1,5.809176E1,1.1827322E2,1.3275977E1,3.8269703E1,1.9822056E1,1.064125E2,1.1860723E1,2.1526497E1,1.6743204E1],"tree_param":{"num_deleted":"0","num_feature":"53","num_nodes":"15","size_leaf_vector":"1"}},{"base_weights":[-1.805531E-2,1.9647677E-1,-4.0406913E-1,2.952589E-1,-5.0298613E-2,-7.2043645E-1,6.4267196E-2,1.9791225E-1,7.375064E-2,-1.0564013E-1,-4.326321E-1,-3.6513012E-2,6.321172E-2,4.304018E-2,-3.4035414E-3,4.1118257E-2,-7.816305E-2],"categories":[],"categories_nodes":[],"categories_segments":[],"categories_sizes":[],"default_left":[0,0,0,0,0,0,0,0,0,0,0,0,0,0,0,0,0],"id":50,"left_children":[1,3,5,7,-1,9,11,13,-1,-1,15,-1,-1,-1,-1,-1,-1],"loss_changes":[1.776716E1,1.1177625E1,1.1399852E1,7.039851E0,0E0,6.852318E0,1.1687179E1,8.374997E0,0E0,0E0,1.5764566E1,0E0,0E0,0E0,0E0,0E0,0E0],"parents":[2147483647,0,0,1,1,2,2,3,3,5,5,6,6,7,7,10,10],"right_children":[2,4,6,8,-1,10,12,14,-1,-1,16,-1,-1,-1,-1,-1,-1],"split_conditions":[6.8421054E-1,1.0096E4,1E0,6.8421054E-1,-5.0298613E-2,5.5E1,1E0,1.6666667E-1,7.375064E-2,-1.0564013E-1,6.5E1,-3.6513012E-2,6.321172E-2,4.304018E-2,-3.4035414E-3,4.1118257E-2,-7.816305E-2],"split_indices":[30,9,52,26,0,5,51,26,0,0,5,0,0,0,0,0,0],"split_type":[0,0,0,0,0,0,0,0,0,0,0,0,0,0,0,0,0],"sum_hessian":[2.1258855E2,1.3696149E2,7.562707E1,1.2258916E2,1.4372328E1,4.4815395E1,3.0811676E1,1.06617226E2,1.59719305E1,1.401186E1,3.0803535E1,1.8108978E1,1.2702697E1,4.474387E1,6.1873352E1,1.0991685E1,1.981185E1],"tree_param":{"num_deleted":"0","num_feature":"53","num_nodes":"17","size_leaf_vector":"1"}},{"base_weights":[1.1622606E-2,6.109775E-1,-1.2463548E-1,1.4311681E-2,8.3569247E-1,1.517969E-1,-4.210321E-1,9.10253E-2,3.8053047E-2,-1.6646309E-1,6.2541527E-1,-2.1178535E-1,-1.17812715E-1,2.3919437E-2,-3.3937894E-2,6.9911584E-2,1.9682748E-2,-3.8798016E-2,3.554591E-2],"categories":[],"categories_nodes":[],"categories_segments":[],"categories_sizes":[],"default_left":[0,0,0,0,0,0,0,0,0,0,0,0,0,0,0,0,0,0,0],"id":51,"left_children":[1,3,5,-1,7,9,11,-1,-1,13,15,17,-1,-1,-1,-1,-1,-1,-1],"loss_changes":[1.7773468E1,3.815689E0,1.4598282E1,0E0,2.141899E0,1.4050337E1,1.7824783E1,0E0,0E0,6.4122715E0,3.0222378E0,1.2251962E1,0E0,0E0,0E0,0E0,0E0,0E0,0E0],"parents":[2147483647,0,0,1,1,2,2,4,4,5,5,6,6,9,9,10,10,11,11],"right_children":[2,4,6,-1,8,10,12,-1,-1,14,16,18,-1,-1,-1,-1,-1,-1,-1],"split_conditions":[1.2E1,6.1E1,2.75E0,1.4311681E-2,2.75E0,1E0,1E0,9.10253E-2,3.8053047E-2,2E0,8.21E2,2.1436E4,-1.17812715E-1,2.3919437E-2,-3.3937894E-2,6.9911584E-2,1.9682748E-2,-3.8798016E-2,3.554591E-2],"split_indices":[12,5,27,0,27,52,47,0,0,20,1,10,0,0,0,0,0,0,0],"split_type":[0,0,0,0,0,0,0,0,0,0,0,0,0,0,0,0,0,0,0],"sum_hessian":[2.1570113E2,3.9309128E1,1.76392E2,1.3945513E1,2.5363617E1,9.152224E1,8.486976E1,1.3610767E1,1.175285E1,5.512686E1,3.639538E1,7.12932E1,1.3576568E1,1.920452E1,3.592234E1,2.2317503E1,1.4077876E1,5.1011463E1,2.0281733E1],"tree_param":{"num_deleted":"0","num_feature":"53","num_nodes":"19","size_leaf_vector":"1"}},{"base_weights":[1.4002932E-2,3.7171713E-1,-1.5149608E-1,6.884237E-1,-1.4946598E-1,2.2277588E-1,-3.658005E-1,8.3547366E-1,2.0010486E-2,-4.0903457E-2,2.9773692E-2,6.4936393E-1,-1.7582212E-1,-7.220756E-1,-1.4052904E-1,8.944151E-2,4.7277056E-2,2.3000242E-2,9.176414E-2,-5.4564208E-2,3.915729E-2,-6.042837E-3,-1.0410498E-1,-7.971913E-2,5.3692358E-3],"categories":[],"categories_nodes":[],"categories_segments":[],"categories_sizes":[],"default_left":[0,0,0,0,0,0,0,0,0,0,0,0,0,0,0,0,0,0,0,0,0,0,0,0,0],"id":52,"left_children":[1,3,5,7,9,11,13,15,-1,-1,-1,17,19,21,23,-1,-1,-1,-1,-1,-1,-1,-1,-1,-1],"loss_changes":[1.262908E1,1.1238948E1,1.178443E1,2.5582561E0,4.8451514E0,9.253197E0,7.37541E0,1.4238129E0,0E0,0E0,0E0,4.189164E0,9.363788E0,1.2498655E1,9.98347E0,0E0,0E0,0E0,0E0,0E0,0E0,0E0,0E0,0E0,0E0],"parents":[2147483647,0,0,1,1,2,2,3,3,4,4,5,5,6,6,7,7,11,11,12,12,13,13,14,14],"right_children":[2,4,6,8,10,12,14,16,-1,-1,-1,18,20,22,24,-1,-1,-1,-1,-1,-1,-1,-1,-1,-1],"split_conditions":[2.5E0,7.46E2,3E0,7.222222E-1,8.5E1,7.789916E-1,6.66E2,2E0,2.0010486E-2,-4.0903457E-2,2.9773692E-2,7.3210496E-1,4E0,4.347826E-1,2.75E0,8.944151E-2,4.7277056E-2,2.3000242E-2,9.176414E-2,-5.4564208E-2,3.915729E-2,-6.042837E-3,-1.0410498E-1,-7.971913E-2,5.3692358E-3],"split_indices":[27,1,18,30,5,23,1,14,0,0,0,23,11,26,27,0,0,0,0,0,0,0,0,0,0],"split_type":[0,0,0,0,0,0,0,0,0,0,0,0,0,0,0,0,0,0,0,0,0,0,0,0,0],"sum_hessian":[2.1137296E2,6.646583E1,1.4490712E2,4.1143394E1,2.5322432E1,5.2747215E1,9.215991E1,3.0275978E1,1.0867414E1,1.5096324E1,1.0226109E1,2.5175133E1,2.7572084E1,3.4845352E1,5.731456E1,1.3870151E1,1.6405827E1,1.4899082E1,1.0276051E1,1.57716465E1,1.1800437E1,1.6369057E1,1.8476294E1,1.067799E1,4.663657E1],"tree_param":{"num_deleted":"0","num_feature":"53","num_nodes":"25","size_leaf_vector":"1"}},{"base_weights":[1.1721654E-2,-1.4950831E-1,4.33107E-1,3.4603208E-1,-3.8060558E-1,8.1035966E-1,6.737716E-2,1.5420765E-1,7.792137E-2,-5.3622764E-1,3.8693864E-2,1.5141673E-2,1.02525674E-1,-4.4456508E-2,3.859333E-2,3.755053E-2,-1.7300818E-2,-1.8915804E-2,-7.039653E-2],"categories":[],"categories_nodes":[],"categories_segments":[],"categories_sizes":[],"default_left":[0,0,0,0,0,0,0,0,0,0,0,0,0,0,0,0,0,0,0],"id":53,"left_children":[1,3,5,7,9,11,13,15,-1,17,-1,-1,-1,-1,-1,-1,-1,-1,-1],"loss_changes":[1.4161235E1,1.7402128E1,7.902939E0,5.432082E0,1.3923134E1,7.4672546E0,7.646468E0,4.261385E0,0E0,8.370939E0,0E0,0E0,0E0,0E0,0E0,0E0,0E0,0E0,0E0],"parents":[2147483647,0,0,1,1,2,2,3,3,4,4,5,5,6,6,7,7,9,9],"right_children":[2,4,6,8,10,12,14,16,-1,18,-1,-1,-1,-1,-1,-1,-1,-1,-1],"split_conditions":[3E0,1E-1,1.3583E4,1E0,1E0,8.636364E-1,7E0,8.055624E-1,7.792137E-2,7.71E2,3.8693864E-2,1.5141673E-2,1.02525674E-1,-4.4456508E-2,3.859333E-2,3.755053E-2,-1.7300818E-2,-1.8915804E-2,-7.039653E-2],"split_indices":[21,26,10,21,40,30,21,23,0,1,0,0,0,0,0,0,0,0,0],"split_type":[0,0,0,0,0,0,0,0,0,0,0,0,0,0,0,0,0,0,0],"sum_hessian":[2.0648447E2,1.4980966E2,5.66748E1,4.7486763E1,1.0232291E2,2.7299479E1,2.9375322E1,3.6931145E1,1.0555621E1,8.68042E1,1.5518702E1,1.1753935E1,1.5545544E1,1.1549765E1,1.7825558E1,2.0065472E1,1.6865671E1,4.5080856E1,4.1723347E1],"tree_param":{"num_deleted":"0","num_feature":"53","num_nodes":"19","size_leaf_vector":"1"}},{"base_weights":[1.978363E-2,-1.386124E-1,4.3638822E-1,5.780461E-2,-2.3483628E-1,-1.9361857E-2,6.1706924E-1,-4.2189988E-1,1.8211605E-1,3.390952E-1,9.865232E-2,-6.299056E-2,6.6317855E-3,4.8173092E-2,-6.892141E-2,5.5170532E-2,2.9240272E-3],"categories":[],"categories_nodes":[],"categories_segments":[],"categories_sizes":[],"default_left":[0,0,0,0,0,0,0,0,0,0,0,0,0,0,0,0,0],"id":54,"left_children":[1,3,5,-1,7,-1,9,11,13,15,-1,-1,-1,-1,-1,-1,-1],"loss_changes":[1.3661309E1,1.2299177E1,7.0617E0,0E0,1.0638913E1,0E0,6.8855667E0,1.6204277E1,1.7973343E1,3.183158E0,0E0,0E0,0E0,0E0,0E0,0E0,0E0],"parents":[2147483647,0,0,1,1,2,2,4,4,6,6,7,7,8,8,9,9],"right_children":[2,4,6,-1,8,-1,10,12,14,16,-1,-1,-1,-1,-1,-1,-1],"split_conditions":[1E0,2E0,1.388889E-1,5.780461E-2,9E0,-1.9361857E-2,8.4E1,3.3333334E-1,1.8E1,3.485E3,9.865232E-2,-6.299056E-2,6.6317855E-3,4.8173092E-2,-6.892141E-2,5.5170532E-2,2.9240272E-3],"split_indices":[32,6,28,0,19,0,5,25,16,9,0,0,0,0,0,0,0],"split_type":[0,0,0,0,0,0,0,0,0,0,0,0,0,0,0,0,0],"sum_hessian":[2.051089E2,1.4909079E2,5.60181E1,1.4673638E1,1.3441716E2,1.181489E1,4.4203213E1,9.278E1,4.1637157E1,3.095799E1,1.3245221E1,5.4850388E1,3.792961E1,3.0148304E1,1.1488854E1,1.4244805E1,1.6713186E1],"tree_param":{"num_deleted":"0","num_feature":"53","num_nodes":"17","size_leaf_vector":"1"}},{"base_weights":[9.698377E-2,-2.3869129E-2,4.115566E-1,8.541233E-2,-5.7766575E-1,1.6913068E-1,8.047947E-1,7.372754E-2,-4.361884E-3,1.02395015E-2,-9.218707E-2,4.4564962E-1,-3.1323623E-2,3.5196777E-2,9.0260774E-2,1.2188636E-2,-4.3440614E-2,9.407353E-3,6.583429E-2],"categories":[],"categories_nodes":[],"categories_segments":[],"categories_sizes":[],"default_left":[0,0,0,0,0,0,0,0,0,0,0,0,0,0,0,0,0,0,0],"id":55,"left_children":[1,3,5,7,9,11,13,-1,15,-1,-1,17,-1,-1,-1,-1,-1,-1,-1],"loss_changes":[7.9049473E0,9.186518E0,5.3639927E0,9.230131E0,9.641219E0,5.7831006E0,1.9182482E0,0E0,9.258749E0,0E0,0E0,2.84232E0,0E0,0E0,0E0,0E0,0E0,0E0,0E0],"parents":[2147483647,0,0,1,1,2,2,3,3,4,4,5,5,6,6,8,8,11,11],"right_children":[2,4,6,8,10,12,14,-1,16,-1,-1,18,-1,-1,-1,-1,-1,-1,-1],"split_conditions":[5E0,1E0,1.1413567E0,5.8894217E-1,1.1162E4,8.335886E-1,1.4011E4,7.372754E-2,1E0,1.02395015E-2,-9.218707E-2,5.185185E-1,-3.1323623E-2,3.5196777E-2,9.0260774E-2,1.2188636E-2,-4.3440614E-2,9.407353E-3,6.583429E-2],"split_indices":[11,47,23,23,10,23,10,0,38,0,0,30,0,0,0,0,0,0,0],"split_type":[0,0,0,0,0,0,0,0,0,0,0,0,0,0,0,0,0,0,0],"sum_hessian":[2.0667332E2,1.4997855E2,5.669478E1,1.2596706E2,2.4011486E1,3.5957546E1,2.0737234E1,1.1680854E1,1.142862E2,1.0789037E1,1.3222449E1,2.4043146E1,1.1914399E1,1.0094845E1,1.064239E1,8.906255E1,2.5223648E1,1.3089136E1,1.0954009E1],"tree_param":{"num_deleted":"0","num_feature":"53","num_nodes":"19","size_leaf_vector":"1"}},{"base_weights":[6.3009255E-2,3.942082E-1,-5.1544104E-2,6.6397756E-1,-1.1358928E-2,3.4631285E-1,-1.5181868E-1,9.674916E-1,1.3016021E-2,7.5888544E-2,-1.4397718E-2,7.588565E-2,-3.9930105E-1,9.4724715E-2,5.9394334E-2,4.1843936E-2,-1.8639894E-2,-6.2064216E-2,4.858851E-3],"categories":[],"categories_nodes":[],"categories_segments":[],"categories_sizes":[],"default_left":[0,0,0,0,0,0,0,0,0,0,0,0,0,0,0,0,0,0,0],"id":56,"left_children":[1,3,5,7,-1,9,11,13,-1,-1,-1,15,17,-1,-1,-1,-1,-1,-1],"loss_changes":[7.9088173E0,7.7778015E0,6.2511215E0,5.3306627E0,0E0,9.619123E0,7.0625906E0,1.6525078E-1,0E0,0E0,0E0,8.706797E0,9.7709255E0,0E0,0E0,0E0,0E0,0E0,0E0],"parents":[2147483647,0,0,1,1,2,2,3,3,5,5,6,6,7,7,11,11,12,12],"right_children":[2,4,6,8,-1,10,12,14,-1,-1,-1,16,18,-1,-1,-1,-1,-1,-1],"split_conditions":[2E0,1E0,1.2E1,1E0,-1.1358928E-2,2.75E0,1E0,6.8E1,1.3016021E-2,7.5888544E-2,-1.4397718E-2,3E0,1E0,9.4724715E-2,5.9394334E-2,4.1843936E-2,-1.8639894E-2,-6.2064216E-2,4.858851E-3],"split_indices":[4,36,12,38,0,27,15,5,0,0,0,19,52,0,0,0,0,0,0],"split_type":[0,0,0,0,0,0,0,0,0,0,0,0,0,0,0,0,0,0,0],"sum_hessian":[2.0692062E2,5.254891E1,1.543717E2,3.4705036E1,1.7843872E1,3.0581318E1,1.2379039E2,2.1122854E1,1.3582183E1,1.4176299E1,1.6405018E1,6.483249E1,5.89579E1,1.0041757E1,1.1081098E1,2.6401636E1,3.843085E1,3.2900654E1,2.605725E1],"tree_param":{"num_deleted":"0","num_feature":"53","num_nodes":"19","size_leaf_vector":"1"}},{"base_weights":[8.3677545E-2,7.100042E-1,9.4730705E-3,7.594682E-2,3.677955E-2,-3.722811E-1,1.1433908E-1,1.0772365E-1,-8.929133E-2,-2.5459427E-2,4.5888266E-1,-3.731204E-2,5.1475808E-2,1.1064843E-2,-7.430234E-2,6.8518385E-2,-5.017432E-4],"categories":[],"categories_nodes":[],"categories_segments":[],"categories_sizes":[],"default_left":[0,0,0,0,0,0,0,0,0,0,0,0,0,0,0,0,0],"id":57,"left_children":[1,3,5,-1,-1,7,9,11,-1,13,15,-1,-1,-1,-1,-1,-1],"loss_changes":[9.8643675E0,8.4369946E-1,7.6851125E0,0E0,0E0,1.4246587E1,7.262262E0,7.707744E0,0E0,1.5245727E1,7.5444136E0,0E0,0E0,0E0,0E0,0E0,0E0],"parents":[2147483647,0,0,1,1,2,2,5,5,6,6,7,7,9,9,10,10],"right_children":[2,4,6,-1,-1,8,10,12,-1,14,16,-1,-1,-1,-1,-1,-1],"split_conditions":[2E0,5.66E2,8.213E3,7.594682E-2,3.677955E-2,6.8E1,8.4E1,5.1E1,-8.929133E-2,7.4E1,1.6044E4,-3.731204E-2,5.1475808E-2,1.1064843E-2,-7.430234E-2,6.8518385E-2,-5.017432E-4],"split_indices":[18,1,10,0,0,5,5,5,0,5,10,0,0,0,0,0,0],"split_type":[0,0,0,0,0,0,0,0,0,0,0,0,0,0,0,0,0],"sum_hessian":[2.1139008E2,2.1484114E1,1.8990598E2,1.0528602E1,1.0955511E1,4.037495E1,1.4953102E2,2.4615921E1,1.5759029E1,1.070298E2,4.250122E1,1.1870255E1,1.2745666E1,9.124344E1,1.5786365E1,2.3152649E1,1.934857E1],"tree_param":{"num_deleted":"0","num_feature":"53","num_nodes":"17","size_leaf_vector":"1"}},{"base_weights":[9.440944E-2,-6.041182E-2,1.5937395E-1,4.1423035E-1,-7.1110562E-3,5.69038E-1,-1.1619287E-2,1.0545444E-1,-8.545623E-2,3.8811981E-3,5.6728106E-2,-2.3575196E-2,2.814838E-2],"categories":[],"categories_nodes":[],"categories_segments":[],"categories_sizes":[],"default_left":[0,0,0,0,0,0,0,0,0,0,0,0,0],"id":58,"left_children":[1,-1,3,5,7,9,-1,11,-1,-1,-1,-1,-1],"loss_changes":[1.1247201E1,0E0,8.181915E0,6.6288834E0,1.3743144E1,3.6951313E0,0E0,9.985348E0,0E0,0E0,0E0,0E0,0E0],"parents":[2147483647,0,0,2,2,3,3,4,4,5,5,7,7],"right_children":[2,-1,4,6,8,10,-1,12,-1,-1,-1,-1,-1],"split_conditions":[1E0,-6.041182E-2,3.2E1,4E0,1.283E3,8.306E3,-1.1619287E-2,1E0,-8.545623E-2,3.8811981E-3,5.6728106E-2,-2.3575196E-2,2.814838E-2],"split_indices":[31,0,0,29,1,10,0,41,0,0,0,0,0],"split_type":[0,0,0,0,0,0,0,0,0,0,0,0,0],"sum_hessian":[2.0600975E2,1.4244888E1,1.9176486E2,7.518423E1,1.16580635E2,5.87732E1,1.6411024E1,1.05905205E2,1.0675424E1,1.1208022E1,4.7565178E1,3.976493E1,6.6140274E1],"tree_param":{"num_deleted":"0","num_feature":"53","num_nodes":"13","size_leaf_vector":"1"}},{"base_weights":[7.0770524E-2,-5.7801362E-2,4.581651E-1,-7.985212E-2,4.1509975E-2,7.323292E-1,1.8859202E-4,6.309189E-1,-7.69586E-2,1.2089937E-2,8.473828E-2,9.0857334E-2,6.0141096E-3,-3.5783436E-2,1.2168934E-2],"categories":[],"categories_nodes":[],"categories_segments":[],"categories_sizes":[],"default_left":[0,0,0,0,0,0,0,0,0,0,0,0,0,0,0],"id":59,"left_children":[1,3,5,-1,7,9,-1,11,13,-1,-1,-1,-1,-1,-1],"loss_changes":[1.0072645E1,1.382725E1,6.2941036E0,0E0,9.706707E0,5.303711E0,0E0,6.0418816E0,9.381543E0,0E0,0E0,0E0,0E0,0E0,0E0],"parents":[2147483647,0,0,1,1,2,2,4,4,5,5,7,7,8,8],"right_children":[2,4,6,-1,8,10,-1,12,14,-1,-1,-1,-1,-1,-1],"split_conditions":[2E0,1E0,1E0,-7.985212E-2,6.691415E-1,8.3936495E-1,1.8859202E-4,2.75E0,1.4011E4,1.2089937E-2,8.473828E-2,9.0857334E-2,6.0141096E-3,-3.5783436E-2,1.2168934E-2],"split_indices":[31,11,50,0,23,23,0,27,10,0,0,0,0,0,0],"split_type":[0,0,0,0,0,0,0,0,0,0,0,0,0,0,0],"sum_hessian":[2.0069756E2,1.5132523E2,4.9372337E1,1.4008662E1,1.3731656E2,3.0452045E1,1.8920294E1,2.2257025E1,1.1505953E2,1.0730366E1,1.972168E1,1.1529782E1,1.07272415E1,4.4052837E1,7.10067E1],"tree_param":{"num_deleted":"0","num_feature":"53","num_nodes":"15","size_leaf_vector":"1"}},{"base_weights":[1.8620731E-1,8.775428E-2,4.9349284E-1,2.784117E-1,-1.5244488E-1,7.552741E-2,2.3128124E-1,7.327315E-1,6.7603275E-2,-5.212232E-1,3.3227018E-1,4.9299832E-2,-6.8926946E-3,3.7122178E-3,9.315253E-2,3.5255156E-2,-2.2841243E-2,2.5834825E-2,-7.802573E-2,8.8840276E-2,-3.3416007E-2],"categories":[],"categories_nodes":[],"categories_segments":[],"categories_sizes":[],"default_left":[0,0,0,0,0,0,0,0,0,0,0,0,0,0,0,0,0,0,0,0,0],"id":60,"left_children":[1,3,5,7,9,-1,11,13,15,17,19,-1,-1,-1,-1,-1,-1,-1,-1,-1,-1],"loss_changes":[6.65626E0,7.778767E0,5.7268496E0,9.004172E0,1.365103E1,0E0,4.0249066E0,8.119011E0,8.277821E0,1.5655746E1,1.8705957E1,0E0,0E0,0E0,0E0,0E0,0E0,0E0,0E0,0E0,0E0],"parents":[2147483647,0,0,1,1,2,2,3,3,4,4,6,6,7,7,8,8,9,9,10,10],"right_children":[2,4,6,8,10,-1,12,14,16,18,20,-1,-1,-1,-1,-1,-1,-1,-1,-1,-1],"split_conditions":[1E0,1E0,1.3E1,2E0,1.0524626E0,7.552741E-2,3E0,1.5E1,4.7058824E-1,2.436E3,1.1856035E0,4.9299832E-2,-6.8926946E-3,3.7122178E-3,9.315253E-2,3.5255156E-2,-2.2841243E-2,2.5834825E-2,-7.802573E-2,8.8840276E-2,-3.3416007E-2],"split_indices":[32,15,12,8,23,0,4,12,26,9,23,0,0,0,0,0,0,0,0,0,0],"split_type":[0,0,0,0,0,0,0,0,0,0,0,0,0,0,0,0,0,0,0,0,0],"sum_hessian":[2.204499E2,1.6793106E2,5.2518852E1,9.3531555E1,7.43995E1,1.9136806E1,3.3382046E1,2.8859573E1,6.467198E1,4.221011E1,3.218939E1,1.4999397E1,1.8382647E1,1.0985699E1,1.7873875E1,3.1509048E1,3.3162937E1,1.4346544E1,2.7863567E1,1.5776814E1,1.6412575E1],"tree_param":{"num_deleted":"0","num_feature":"53","num_nodes":"21","size_leaf_vector":"1"}},{"base_weights":[5.8737893E-2,-6.9478214E-2,1.2215535E-1,3.711103E-1,-9.633917E-2,6.311835E-1,-7.107975E-2,-3.780225E-1,3.000007E-1,9.760355E-2,3.9397884E-2,-5.4595117E-2,2.4011983E-2,4.8745987E-3,-6.283774E-2,5.5402923E-2,-2.2183223E-2],"categories":[],"categories_nodes":[],"categories_segments":[],"categories_sizes":[],"default_left":[0,0,0,0,0,0,0,0,0,0,0,0,0,0,0,0,0],"id":61,"left_children":[1,-1,3,5,7,9,11,13,15,-1,-1,-1,-1,-1,-1,-1,-1],"loss_changes":[1.1924532E1,0E0,1.05861E1,1.0494521E1,1.1734458E1,4.2870197E0,7.602187E0,1.035187E1,9.467422E0,0E0,0E0,0E0,0E0,0E0,0E0,0E0,0E0],"parents":[2147483647,0,0,2,2,3,3,4,4,5,5,6,6,7,7,8,8],"right_children":[2,-1,4,6,8,10,12,14,16,-1,-1,-1,-1,-1,-1,-1,-1],"split_conditions":[1E0,-6.9478214E-2,1E0,7.1E1,7.8E1,5.868E3,8.4E1,3.4E1,1.4E1,9.760355E-2,3.9397884E-2,-5.4595117E-2,2.4011983E-2,4.8745987E-3,-6.283774E-2,5.5402923E-2,-2.2183223E-2],"split_indices":[31,0,34,5,5,10,5,0,12,0,0,0,0,0,0,0,0],"split_type":[0,0,0,0,0,0,0,0,0,0,0,0,0,0,0,0,0],"sum_hessian":[2.056586E2,1.2701626E1,1.9295697E2,8.9865166E1,1.03091805E2,5.6315758E1,3.3549408E1,6.0289547E1,4.2802258E1,1.0736519E1,4.557924E1,1.2433206E1,2.1116205E1,2.8613886E1,3.167566E1,2.5764288E1,1.7037968E1],"tree_param":{"num_deleted":"0","num_feature":"53","num_nodes":"17","size_leaf_vector":"1"}},{"base_weights":[1.2234336E-1,5.5867273E-2,6.4677514E-2,-1.02751516E-1,3.4077525E-1,3.8317E-2,-1.001311E-1,1.2438189E-1,7.889406E-1,-6.8612723E-3,5.3197995E-2,-1.5061114E-2,4.423133E-2,9.83721E-2,3.1143954E-2],"categories":[],"categories_nodes":[],"categories_segments":[],"categories_sizes":[],"default_left":[0,0,0,0,0,0,0,0,0,0,0,0,0,0,0],"id":62,"left_children":[1,-1,3,5,7,9,-1,11,13,-1,-1,-1,-1,-1,-1],"loss_changes":[6.5409217E0,0E0,8.691607E0,1.8462898E1,6.779954E0,7.815957E0,0E0,6.3085217E0,3.3612595E0,0E0,0E0,0E0,0E0,0E0,0E0],"parents":[2147483647,0,0,2,2,3,3,4,4,5,5,7,7,8,8],"right_children":[2,-1,4,6,8,10,-1,12,14,-1,-1,-1,-1,-1,-1],"split_conditions":[2E0,5.5867273E-2,1.1E1,8E0,2.7272728E-1,1E0,-1.001311E-1,2E0,1.7E1,-6.8612723E-3,5.3197995E-2,-1.5061114E-2,4.423133E-2,9.83721E-2,3.1143954E-2],"split_indices":[6,0,2,22,28,40,0,29,2,0,0,0,0,0,0],"split_type":[0,0,0,0,0,0,0,0,0,0,0,0,0,0,0],"sum_hessian":[2.0447505E2,1.8211454E1,1.862636E2,1.163409E2,6.99227E1,1.04106186E2,1.2234715E1,4.801604E1,2.1906656E1,8.745958E1,1.6646606E1,2.7839434E1,2.0176607E1,1.0073138E1,1.1833518E1],"tree_param":{"num_deleted":"0","num_feature":"53","num_nodes":"15","size_leaf_vector":"1"}},